svm_type c_svc
kernel_type rbf
gamma 0.0163934
nr_class 2
total_sv 213
rho 1.48759
label 1 -1
probA -10.1741
probB -7.48233
nr_sv 100 113
SV
1 1:-0.840773 2:-0.651208 3:-0.862607 4:-0.129719 5:0.128563 6:-0.653283 7:0.260106 8:-0.92685 9:-0.93832 10:0.491074 11:-0.00496507 12:-0.769265 13:-0.66059 14:-0.771448 15:-0.303827 16:-0.316979 17:-0.259507 18:-0.525406 19:-0.326659 20:-0.617165 21:-0.233191 22:-0.64627 23:-0.239281 24:-0.558296 25:-0.0674013 26:-0.492721 27:0.152597 28:-0.26425 29:0.200294 30:-0.345319 31:-0.116607 32:-0.525985 33:-0.678825 34:-0.676098 35:-1 36:-0.987915 37:-0.993691 38:-0.981735 39:-0.995633 40:-0.987711 41:-0.974843 42:-0.989485 43:-0.98767 44:-0.973154 45:-0.969811 46:-0.950549 47:-0.932394 48:-0.96401 49:-0.96817 50:-0.909091 51:-0.891374 52:-0.837037 53:-0.784 54:-0.765886 55:-0.6 56:-0.494949 57:-0.66879 58:-0.418182 59:-0.555556 60:0.0189857 61:0.492807 
1 1:-0.942936 2:-0.371896 3:-0.91388 4:-0.111099 5:0.106068 6:-0.332801 7:0.111224 8:-0.831258 9:-0.974581 10:0.454846 11:-0.258791 12:-0.973308 13:-0.660272 14:-0.967442 15:-0.776586 16:-0.851681 17:-1 18:-1 19:-0.0257672 20:-0.68814 21:0.429461 22:-0.385463 23:0.199266 24:-0.624553 25:0.00800515 26:-0.681739 27:0.129339 28:-0.503539 29:0.0486442 30:-0.586419 31:-0.505135 32:-0.612561 33:-0.76233 34:-0.812257 35:-0.99361 36:-1 37:-1 38:-0.995434 39:-1 40:-0.998464 41:-0.989937 42:-0.993691 43:-0.992602 44:-0.975839 45:-0.94717 46:-0.967033 47:-0.898592 48:-0.912596 49:-0.93634 50:-0.945455 51:-0.974441 52:-0.933333 53:-0.952 54:-0.966555 55:-0.975 56:-0.989899 57:-0.961783 58:-1 59:-1 60:-0.571116 61:-0.332129 
1 1:-0.829728 2:-0.750759 3:-0.881645 4:-0.1626 5:0.187479 6:-0.744424 7:0.354719 8:-0.98056 9:-0.935727 10:0.44945 11:-0.246919 12:-0.716487 13:-0.657697 14:-0.728943 15:0.0932323 16:-0.454716 17:-0.0904846 18:-0.323734 19:0.0786568 20:-0.277832 21:0.0326919 22:-0.279127 23:-0.367221 24:-0.268425 25:-0.311706 26:-0.221625 27:-0.286818 28:-0.32642 29:-0.466947 30:-0.437602 31:-0.326712 32:-0.407316 33:-0.738403 34:-0.742206 35:-0.916933 36:-0.963746 37:-0.974763 38:-0.986301 39:-0.994178 40:-0.993856 41:-0.989937 42:-0.983176 43:-0.995068 44:-0.989262 45:-0.984906 46:-0.945055 47:-0.971831 48:-0.943445 49:-0.93634 50:-0.957576 51:-0.897764 52:-0.844444 53:-0.84 54:-0.799331 55:-0.575 56:-0.393939 57:-0.541401 58:-0.0181818 60:0.234014 61:0.499075 
1 1:-0.92959 2:-0.186185 3:-0.937785 4:-0.118055 5:0.141692 6:-0.0847411 7:0.132638 8:-0.884444 9:-0.954849 10:0.456084 11:-0.268039 12:-0.896156 13:-0.721154 14:-0.892431 15:0.11037 16:-0.447379 17:0.0976871 18:-0.409227 19:0.0011353 20:-0.74129 21:-0.131451 22:-0.375304 23:-0.190268 24:-0.778696 25:0.0362064 26:-0.431189 27:0.103599 28:-0.441668 29:0.441827 30:-0.217719 31:0.28278 32:-0.370984 33:-0.423858 34:-0.519084 35:-1 36:-0.993958 37:-0.996845 38:-0.968037 39:-0.997089 40:-0.996928 41:-0.977358 42:-0.989485 43:-0.98767 44:-0.986577 45:-0.966038 46:-0.972527 47:-0.943662 48:-0.974293 49:-0.920424 50:-0.927273 51:-0.923323 52:-0.896296 53:-0.936 54:-0.892977 55:-0.941667 56:-0.969697 57:-0.987261 58:-0.890909 59:-0.888889 60:-0.358878 61:0.178016 
1 1:-0.583985 2:-0.887294 3:-0.925491 4:-0.222946 5:0.137431 6:-0.893732 7:0.301132 8:-0.901103 9:-0.855626 10:0.457561 11:-0.261795 12:-0.623489 13:-0.661034 14:-0.614694 15:-0.023045 16:-0.464766 17:-0.259957 18:-0.650112 19:-0.321934 20:-0.639148 21:-0.208327 22:-0.165808 23:-0.0955207 24:-0.398718 25:0.254928 26:-0.444261 27:0.315441 28:-0.540447 29:0.252336 30:-0.559465 31:-0.0735078 32:-0.537834 33:-0.504981 34:-0.7029 35:-0.974441 36:-0.969789 37:-0.974763 38:-0.96347 39:-0.994178 40:-0.995392 41:-0.969811 42:-0.983176 43:-0.985203 44:-0.965101 45:-0.954717 46:-0.967033 47:-0.938028 48:-0.943445 49:-0.904509 50:-0.89697 51:-0.846645 52:-0.740741 53:-0.48 54:-0.444816 55:0.508333 56:1 57:0.617834 58:0.490909 60:-0.143603 61:0.650112 
1 1:-0.78647 2:-0.7207 3:-0.750987 4:-0.116043 5:0.192725 6:-0.776636 7:0.36971 8:-0.988822 9:-0.923138 10:0.461105 11:-0.269762 12:-0.649261 13:-0.663336 14:-0.658638 15:-0.454459 16:-0.267136 17:-0.232189 18:-0.403303 19:-0.0915257 20:-0.332948 21:-0.0918129 22:-0.626951 23:-0.0387454 24:-0.701595 25:0.0254225 26:-0.58167 27:0.157233 28:-0.450519 29:0.0573824 30:-0.637357 31:-0.369084 32:-0.696265 33:-0.62759 34:-0.619201 35:-0.974441 36:-0.987915 37:-0.993691 38:-0.972603 39:-0.995633 40:-0.99232 41:-0.994969 42:-0.989485 43:-0.970407 44:-0.983893 45:-0.966038 46:-0.928571 47:-0.932394 48:-0.897172 49:-0.872679 50:-0.824242 51:-0.814696 52:-0.6 53:-0.592 54:-0.545151 55:-0.616667 56:-0.666667 57:-0.66879 58:-0.781818 59:-0.777778 60:-0.131128 61:0.504337 
1 1:-0.607455 2:-0.899087 3:-0.815027 4:-0.212051 5:0.17667 6:-0.941583 7:0.365906 8:-0.976961 9:-0.818615 10:0.445186 11:-0.276813 12:-0.348981 13:-0.684048 14:-0.365854 15:0.507845 16:-0.321132 17:0.491929 18:-0.437292 19:-0.0190083 20:-0.693472 21:-0.17573 22:-0.121582 23:-0.167048 24:-0.297279 25:-0.204784 26:-0.32138 27:-0.213894 28:0.147753 29:-0.431129 30:0.160744 31:-0.308355 32:-0.16635 33:-0.336373 34:-0.678314 35:-0.968051 36:-0.963746 37:-0.977918 38:-0.949772 39:-0.983988 40:-0.980031 41:-0.977358 42:-0.962145 43:-0.958076 44:-0.962416 45:-0.939623 46:-0.912088 47:-0.876056 48:-0.886889 49:-0.862069 50:-0.727273 51:-0.71246 52:-0.42963 53:-0.016 54:0.0167224 55:-0.0666667 56:-0.373737 57:-0.732484 58:-0.745455 59:-0.888889 60:-0.0906914 61:0.482412 
1 1:-0.776346 2:-0.742181 3:-0.744555 4:-0.121251 5:0.143125 6:-0.795712 7:0.326807 8:-0.960075 9:-0.872158 10:0.449252 11:-0.27128 12:-0.65077 13:-0.660676 14:-0.650692 15:-0.110948 16:-0.471454 17:0.0375231 18:-0.314289 19:-0.184212 20:-0.53231 21:0.129061 22:-0.288478 23:-0.210721 24:0.480134 25:-0.307055 26:0.372306 27:-0.631655 28:0.34997 29:-0.489621 30:0.208654 31:-0.319384 32:-0.250708 33:-0.529892 34:-0.677574 35:-0.99361 36:-0.987915 37:-0.993691 38:-0.990868 39:-0.997089 40:-0.990783 41:-0.987421 42:-0.985279 43:-0.977805 44:-0.983893 45:-0.954717 46:-0.928571 47:-0.904225 48:-0.881748 49:-0.915119 50:-0.872727 51:-0.769968 52:-0.681481 53:-0.512 54:-0.525084 55:-0.508333 56:-0.494949 57:-0.770701 58:-0.745455 59:-0.777778 60:-0.230729 61:0.497849 
1 1:-0.818684 2:-0.71044 3:-0.715808 4:-0.106368 5:0.138723 6:-0.782304 7:0.324194 8:-0.969764 9:-0.946583 10:0.453015 11:-0.246163 12:-0.707049 13:-0.659236 14:-0.71606 15:-0.282149 16:-0.328693 17:-0.312534 18:-0.592829 19:-0.304207 20:-0.589845 21:-0.205574 22:-0.402028 23:-0.150894 24:-0.546292 25:-0.0719131 26:-0.65516 27:-0.0162098 28:-0.664403 29:-0.0763444 30:-0.548952 31:-0.24202 32:-0.634655 33:-0.741399 34:-0.561812 35:-0.980831 36:-0.993958 37:-0.996845 38:-1 39:-0.998544 40:-0.99232 41:-0.994969 42:-0.974763 43:-0.982737 44:-0.989262 45:-0.981132 46:-0.945055 47:-0.926761 48:-0.933162 49:-0.915119 50:-0.854545 51:-0.833866 52:-0.785185 53:-0.648 54:-0.48495 55:-0.6 56:-0.555556 57:-0.821656 58:-1 59:-1 60:-0.189413 61:0.536078 
1 1:-0.890014 2:-0.7564 3:-0.437643 4:-0.165035 5:-0.0522253 6:-0.951226 7:0.307714 8:-0.823584 9:-0.96528 10:0.455579 11:-0.259396 12:-0.948279 13:-0.66034 14:-0.946194 15:-0.507614 16:-0.72002 17:-0.712651 18:-0.633808 19:-0.567617 20:-0.354783 21:-0.570974 22:-0.326159 23:-0.243898 24:-0.261898 25:-0.435128 26:-0.349102 27:-0.507255 28:-0.366804 29:-0.520109 30:-0.303423 31:-0.555515 32:-0.462164 33:-0.617234 34:-0.797491 35:-0.974441 36:-0.975831 37:-0.996845 38:-1 39:-0.997089 40:-0.998464 41:-0.994969 42:-0.985279 43:-0.990136 44:-0.97047 45:-0.966038 46:-0.912088 47:-0.83662 48:-0.825193 49:-0.893899 50:-0.830303 51:-0.904153 52:-0.918519 53:-0.968 54:-0.946488 55:-0.925 56:-0.878788 57:-0.961783 58:-0.890909 59:-0.222222 60:-0.418448 61:-0.166384 
1 1:-0.805338 2:-0.65208 3:-0.816016 4:-0.106274 5:0.20813 6:-0.658276 7:0.384754 8:-0.955881 9:-0.769915 10:0.45212 11:-0.261541 12:-0.639074 13:-0.649138 14:-0.628661 15:0.371354 16:0.880518 17:0.211734 18:0.954804 19:0.465704 20:0.716509 21:0.215553 22:-0.0198724 23:0.610749 24:0.160448 25:-0.0865326 26:-0.161428 27:-0.209341 28:-0.381124 29:0.0496439 30:-0.31635 31:0.065998 32:-0.460358 33:-0.724957 34:-0.700478 35:-0.980831 36:-0.963746 37:-0.981073 38:-0.986301 39:-0.989811 40:-0.987711 41:-0.972327 42:-0.968454 43:-0.953144 44:-0.965101 45:-0.924528 46:-0.818681 47:-0.780282 48:-0.8509 49:-0.787798 50:-0.769697 51:-0.763578 52:-0.755556 53:-0.768 54:-0.87291 55:-0.941667 56:-0.939394 57:-0.923567 58:-0.963636 59:-1 60:-0.0417944 61:0.256764 
1 1:-0.448228 2:-0.919173 3:-0.898619 4:-0.229823 5:0.171917 6:-0.937784 7:0.355706 8:-0.965 9:-0.76813 10:0.449098 11:-0.260684 12:-0.392275 13:-0.661781 14:-0.412468 15:0.206721 16:-0.0976304 17:-0.058658 18:-0.268236 19:-0.0737901 20:-0.511054 21:-0.169034 22:-0.155023 23:-0.220225 24:-0.214402 25:-0.234852 26:-0.237492 27:0.192889 28:-0.00650992 29:0.345943 30:-0.245091 31:-0.0324804 32:-0.24914 33:-0.32686 34:-0.401644 35:-0.980831 36:-0.975831 37:-0.987382 38:-0.995434 39:-0.991266 40:-0.983103 41:-0.979874 42:-0.960042 43:-0.980271 44:-0.94094 45:-0.890566 46:-0.785714 47:-0.791549 48:-0.604113 49:-0.400531 50:-0.157576 51:-0.0479233 52:-0.00740741 53:-0.032 54:-0.324415 55:-0.3 56:-0.535354 57:-0.528662 58:-0.563636 59:-1 60:-0.384672 61:0.231126 
1 1:-0.889093 2:-0.753711 3:-0.436372 4:-0.165193 5:-0.0528682 6:-0.951456 7:0.307793 8:-0.823304 9:-0.964055 10:0.455026 11:-0.258992 12:-0.947957 13:-0.660762 14:-0.945306 15:-0.498405 16:-0.731582 17:-0.693741 18:-0.643009 19:-0.47356 20:-0.374745 21:-0.55392 22:-0.362262 23:-0.242234 24:-0.277793 25:-0.590471 26:-0.387543 27:-0.391168 28:-0.364877 29:-0.568736 30:-0.280266 31:-0.622792 32:-0.4162 33:-0.400278 34:-0.63295 35:-0.961661 36:-0.987915 37:-0.993691 38:-1 39:-0.994178 40:-0.998464 41:-0.994969 42:-0.991588 43:-0.980271 44:-0.973154 45:-0.913208 46:-0.857143 47:-0.864789 48:-0.856041 49:-0.803714 50:-0.890909 51:-0.968051 52:-0.962963 53:-0.936 54:-0.93311 55:-0.891667 56:-0.969697 57:-1 58:-0.745455 59:-1 60:-0.409355 61:-0.174948 
1 1:-0.918086 2:-0.635778 3:-0.519072 4:-0.0522967 5:0.305881 6:-0.785489 7:0.447514 8:-0.967982 9:-0.966388 10:0.455159 11:-0.255652 12:-0.896891 13:-0.659656 14:-0.8925 15:0.0550625 16:-0.384405 17:0.0399679 18:-0.453668 19:-0.21111 20:-0.609749 21:-0.0834806 22:-0.625692 23:-0.398644 24:-0.689056 25:0.148474 26:-0.509063 27:0.240513 28:-0.362481 29:-0.377165 30:-0.788453 31:-0.419448 32:-0.718903 33:-0.41741 34:-0.756935 35:-1 36:-1 37:-0.993691 38:-0.990868 39:-0.995633 40:-0.995392 41:-0.98239 42:-0.991588 43:-0.980271 44:-0.994631 45:-0.981132 46:-0.956044 47:-0.966197 48:-0.96401 49:-0.962865 50:-0.927273 51:-0.948882 52:-0.859259 53:-0.872 54:-0.899666 55:-0.825 56:-0.868687 57:-0.834395 58:-0.963636 59:-0.888889 60:-0.158142 61:0.440652 
1 1:-0.957662 2:-0.234524 3:-0.908006 4:-0.0871818 5:0.0803761 6:-0.194606 7:0.0202628 8:-0.75521 9:-0.986806 10:0.454788 11:-0.267939 12:-0.98044 13:-0.676498 14:-0.978006 15:-0.150976 16:-0.66038 17:-0.36729 18:-0.602541 19:-0.251605 20:-0.581177 21:0.0766493 22:-0.619064 23:-0.215221 24:-0.790658 25:-0.223176 26:-0.682353 27:-0.207375 28:-0.538813 29:-0.776967 30:-0.952236 31:-0.751454 32:-0.722812 33:-0.708866 34:-0.730353 35:-1 36:-1 37:-0.993691 38:-1 39:-0.997089 40:-1 41:-0.997484 42:-0.997897 43:-0.992602 44:-0.997315 45:-0.988679 46:-0.972527 47:-0.988732 48:-0.969152 49:-0.984085 50:-0.951515 51:-0.961661 52:-0.962963 53:-0.912 54:-0.906355 55:-0.941667 56:-0.909091 57:-0.974522 58:-0.890909 59:-0.666667 60:-0.386368 61:0.131188 
1 1:-0.673263 2:-0.784345 3:-0.75954 4:-0.138542 5:0.161236 6:-0.825951 7:0.344674 8:-0.96251 9:-0.810457 10:0.453197 11:-0.254026 12:-0.510698 13:-0.656079 14:-0.525963 15:0.315184 16:-0.132139 17:0.104916 18:-0.386122 19:0.124035 20:-0.404297 21:-0.022031 22:-0.546685 23:-0.223768 24:0.273163 25:-0.171223 26:0.28204 27:-0.107707 28:0.253298 29:0.0154387 30:0.00293655 31:-0.356551 32:-0.541934 33:-0.615736 34:-0.695442 35:-0.98722 36:-1 37:-0.996845 38:-0.981735 39:-0.988355 40:-0.996928 41:-0.977358 42:-0.985279 43:-0.963009 44:-0.97047 45:-0.966038 46:-0.906593 47:-0.892958 48:-0.892031 49:-0.883289 50:-0.842424 51:-0.782748 52:-0.718519 53:-0.4 54:-0.471572 55:-0.158333 56:0.20202 57:-0.133758 58:-0.0545455 59:-0.777778 60:-0.162337 61:0.561485 
1 1:-0.473539 2:-0.938692 3:-0.961548 4:-0.249989 5:0.178056 6:-0.931164 7:0.345171 8:-0.955075 9:-0.811997 10:0.454075 11:-0.243588 12:-0.647286 13:-0.666165 14:-0.654884 15:-0.0351497 16:-0.220721 17:-0.128417 18:-0.264595 19:-0.296323 20:-0.0590799 21:-0.313878 22:-0.14259 23:0.085869 24:-0.283185 25:-0.00672732 26:-0.33295 27:-0.0491082 28:-0.518126 29:-0.196591 30:-0.698871 31:-0.403617 32:-0.581702 33:-0.586827 34:-0.192742 35:-1 36:-0.993958 37:-0.990536 38:-0.972603 39:-0.9869 40:-0.986175 41:-0.969811 42:-0.974763 43:-0.945746 44:-0.975839 45:-0.920755 46:-0.78022 47:-0.707042 48:-0.701799 49:-0.681698 50:-0.466667 51:-0.322684 52:-0.318519 53:0.24 54:0.0568562 56:-0.292929 57:-0.630573 58:-0.454545 59:-0.777778 60:-0.328367 61:0.328093 
1 1:-0.703175 2:-0.861947 3:-0.856553 4:-0.19436 5:0.17408 6:-0.883953 7:0.353585 8:-0.975801 9:-0.889612 10:0.461805 11:-0.268781 12:-0.520934 13:-0.662628 14:-0.539101 15:0.463413 16:-0.290141 17:-0.0525921 18:-0.451134 19:-0.263674 20:-0.341273 21:-0.317457 22:-0.354058 23:-0.320845 24:-0.468978 25:-0.390896 26:-0.0951348 27:-0.274282 28:-0.059643 29:-0.212744 30:-0.284549 31:-0.408252 32:-0.335059 33:-0.590819 34:-0.536336 35:-0.891374 36:-0.975831 37:-0.987382 38:-0.954338 39:-0.988355 40:-0.989247 41:-0.977358 42:-0.983176 43:-0.980271 44:-0.981208 45:-0.954717 46:-0.917582 47:-0.921127 48:-0.933162 49:-0.904509 50:-0.90303 51:-0.846645 52:-0.844444 53:-0.592 54:-0.451505 55:-0.158333 56:0.0505051 57:-0.146497 58:-0.236364 60:0.0812918 61:0.482572 
1 1:-0.936033 2:-0.713748 3:-0.770902 4:-0.1136 5:0.0274885 6:-0.752842 7:0.200361 8:-0.796649 9:-0.982414 10:0.455186 11:-0.262934 12:-0.932132 13:-0.660713 14:-0.932711 15:-0.500389 16:-0.266809 17:-0.53198 18:-0.159088 19:-0.860016 20:-0.649035 21:-0.589011 22:-0.129392 23:-0.865988 24:-0.712895 25:-0.820174 26:-0.508979 27:-0.763052 28:0.147603 29:-0.751608 30:-0.231056 31:-0.686225 32:-0.280824 33:-0.692339 34:-0.704795 35:-0.942492 36:-0.897281 37:-0.993691 38:-0.995434 39:-0.995633 40:-0.996928 41:-0.997484 42:-0.997897 43:-0.992602 44:-0.994631 45:-0.996226 46:-0.972527 47:-0.971831 48:-0.974293 49:-0.962865 50:-0.915152 51:-0.904153 52:-0.911111 53:-0.936 54:-0.93311 55:-0.966667 56:-0.929293 57:-0.923567 58:-0.927273 59:-0.777778 60:0.17312 61:0.0360978 
1 1:-0.704096 2:-0.890632 3:-0.932594 4:-0.224278 5:0.148387 6:-0.88603 7:0.307656 8:-0.914875 9:-0.850563 10:0.454859 11:-0.242934 12:-0.694301 13:-0.657743 14:-0.681942 15:0.215088 16:-0.0260929 17:0.258546 18:0.118924 19:0.315044 20:0.156223 21:-0.111148 22:-0.182859 23:-0.379945 24:-0.45289 25:-0.2508 26:-0.271905 27:-0.241083 28:-0.219657 29:-0.263548 30:-0.502431 31:-0.471749 32:-0.296605 33:-0.632688 34:-0.519014 35:-0.942492 36:-0.945619 37:-0.962145 38:-0.972603 39:-0.988355 40:-0.986175 41:-0.967296 42:-0.976866 43:-0.970407 44:-0.981208 45:-0.973585 46:-0.967033 47:-0.966197 48:-0.917738 49:-0.931034 50:-0.854545 51:-0.71885 52:-0.511111 53:-0.328 54:-0.270903 55:-0.325 56:-0.424242 57:-0.592357 58:-0.854545 59:-0.666667 60:0.057626 61:0.469726 
1 1:-0.728486 2:-0.801686 3:-0.995 4:-0.265478 5:0.189926 6:-0.761033 7:0.256134 8:-0.892933 9:-0.847706 10:0.447887 11:-0.259671 12:-0.77184 13:-0.657174 14:-0.741914 15:0.311591 16:-0.369002 17:0.464372 18:-0.278267 19:0.515492 20:-0.460126 21:0.306324 22:-0.246951 23:0.317938 24:-0.329677 25:0.231184 26:-0.418756 27:0.220664 28:-0.353053 29:0.129313 30:-0.36346 31:-0.384618 32:-0.491492 33:-0.701809 34:-0.552083 35:-0.936102 36:-0.975831 37:-0.977918 38:-0.990868 39:-0.991266 40:-1 41:-0.992453 42:-0.989485 43:-0.977805 44:-0.975839 45:-0.966038 46:-0.950549 47:-0.938028 48:-0.922879 49:-0.846154 50:-0.848485 51:-0.686901 52:-0.666667 53:-0.376 54:-0.344482 55:-0.341667 56:-0.313131 57:-0.707006 58:-0.927273 59:-1 60:-0.124383 61:0.457275 
1 1:-0.671422 2:-0.89433 3:-0.99797 4:-0.276597 5:0.193736 6:-0.869669 7:0.277106 8:-0.866123 9:-0.876781 10:0.451299 11:-0.252586 12:-0.78539 13:-0.662486 14:-0.771481 15:-0.535355 16:-0.449552 17:-0.187881 18:-0.366505 19:-0.202277 20:-0.301971 21:-0.103676 22:-0.407395 23:-0.199862 24:-0.533035 25:-0.181417 26:-0.438864 27:-0.18043 28:-0.357591 29:-0.163821 30:-0.329852 31:-0.270789 32:-0.433673 33:-0.584281 34:-0.74519 35:-0.99361 36:-0.987915 37:-0.990536 38:-0.981735 39:-0.994178 40:-0.989247 41:-0.979874 42:-0.985279 43:-0.967941 44:-0.954362 45:-0.943396 46:-0.895604 47:-0.921127 48:-0.8509 49:-0.809019 50:-0.775758 51:-0.654952 52:-0.562963 53:-0.352 54:-0.22408 55:-0.191667 56:-0.363636 57:-0.745223 58:-0.563636 59:-0.888889 60:-0.356411 61:0.323446 
1 1:-0.889093 2:-0.528732 3:0.188951 4:-0.183081 5:-0.278035 6:-0.98373 7:0.325666 8:-0.720894 9:-0.97324 10:0.45179 11:-0.260514 12:-0.804561 13:-0.661705 14:-0.808791 15:-0.536036 16:-0.582289 17:-0.676198 18:-0.532679 19:-0.609418 20:-0.553522 21:-0.704197 22:-0.609208 23:-0.634335 24:-0.19654 25:-0.613597 26:-0.26734 27:-0.500718 28:-0.333025 29:-0.451407 30:-0.321583 31:-0.318007 32:-0.392057 33:-0.548597 34:-0.449092 35:-0.948882 36:-0.945619 37:-0.968454 38:-0.986301 39:-0.994178 40:-0.998464 41:-0.987421 42:-0.991588 43:-0.997534 44:-0.983893 45:-0.977358 46:-0.956044 47:-0.95493 48:-0.96401 49:-0.962865 50:-0.963636 51:-0.923323 52:-0.948148 53:-0.912 54:-0.906355 55:-0.633333 56:-0.707071 57:-0.681529 58:-0.636364 59:-0.888889 60:0.423833 61:0.431713 
1 1:-0.634607 2:-0.909581 3:-0.99917 4:-0.280657 5:0.198261 6:-0.884531 7:0.288626 8:-0.880039 9:-0.861182 10:0.459368 11:-0.260816 12:-0.779768 13:-0.652476 14:-0.760327 15:-0.519519 16:-0.488568 17:-0.0599617 18:-0.404851 19:-0.0998554 20:-0.308612 21:-0.167666 22:-0.433175 23:-0.158852 24:-0.378673 25:-0.154845 26:-0.453611 27:-0.135547 28:-0.309077 29:-0.0815836 30:-0.298432 31:-0.262253 32:-0.176853 33:-0.542746 34:-0.678814 35:-0.98722 36:-0.969789 37:-0.993691 38:-0.990868 39:-0.992722 40:-0.983103 41:-0.98239 42:-0.976866 43:-0.977805 44:-0.962416 45:-0.943396 46:-0.89011 47:-0.825352 48:-0.820051 49:-0.803714 50:-0.690909 51:-0.539936 52:-0.377778 53:-0.24 54:-0.170569 55:-0.283333 56:-0.494949 57:-0.745223 58:-0.672727 59:-0.777778 60:-0.403045 61:0.314556 
1 1:-0.767142 2:-0.748783 3:-0.802225 4:-0.127433 5:0.0553834 6:-0.753833 7:0.216378 8:-0.822817 9:-0.847095 10:0.45529 11:-0.26119 12:-0.641881 13:-0.663849 14:-0.623113 15:0.150842 16:-0.0541536 17:0.184984 18:0.100598 19:-0.0200252 20:-0.269159 21:-0.130568 22:-0.0422074 23:-0.386684 24:-0.132719 25:-0.129985 26:0.12892 27:-0.111823 28:0.040521 29:-0.177023 30:0.240795 31:-0.210248 32:0.213539 33:-0.541878 34:0.020739 35:-0.910543 36:-0.861027 37:-0.776025 38:-0.808219 39:-0.979622 40:-1 41:-0.997484 42:-0.995794 43:-0.990136 44:-0.97047 45:-0.977358 46:-0.978022 47:-0.971831 48:-0.953728 49:-0.952255 50:-0.921212 51:-0.910543 52:-0.8 53:-0.824 54:-0.792642 55:-0.583333 56:-0.434343 57:-0.464968 58:0.2 59:-0.111111 60:0.476605 61:0.0392793 
1 1:-0.944317 2:-0.37984 3:-0.897272 4:-0.0953825 5:0.121497 6:-0.319683 7:0.167488 8:-0.891788 9:-0.978006 10:0.454321 11:-0.259332 12:-0.94286 13:-0.661695 14:-0.941339 15:-0.834492 16:-0.833828 17:-0.830064 18:-0.8373 19:-0.542008 20:-0.881747 21:-1 22:-1 23:-0.225197 24:-0.639029 25:-0.331328 26:-0.712935 27:0.0439016 28:-0.151475 29:0.188464 30:-0.238858 31:-0.0924988 32:-0.671361 33:-0.513176 34:-0.586853 35:-1 36:-0.981873 37:-0.987382 38:-0.96347 39:-0.983988 40:-0.975422 41:-0.957233 42:-0.955836 43:-0.980271 44:-0.989262 45:-0.977358 46:-0.978022 47:-0.966197 48:-0.969152 49:-0.973475 50:-1 51:-0.99361 52:-0.977778 53:-1 54:-0.993311 55:-1 56:-0.989899 57:-1 58:-0.963636 59:-1 60:-0.470621 61:-0.285426 
1 1:-0.478601 2:-0.94737 3:-0.956981 4:-0.252297 5:0.179269 6:-0.946323 7:0.352747 8:-0.967937 9:-0.827815 10:0.453638 11:-0.252357 12:-0.699932 13:-0.658334 14:-0.68317 15:-0.623113 16:-0.261173 17:-0.437176 18:-0.0386218 19:-0.458907 20:-0.110126 21:-0.487919 22:-0.140858 23:-0.293573 24:0.0859388 25:-0.235171 26:0.126668 27:-0.275645 28:0.362693 29:-0.250406 30:0.255005 31:-0.420421 32:-0.318716 33:-0.292933 34:-0.439894 35:-0.968051 36:-1 37:-0.990536 38:-0.990868 39:-0.997089 40:-0.983103 41:-0.979874 42:-0.993691 43:-0.982737 44:-0.957047 45:-0.924528 46:-0.846154 47:-0.735211 48:-0.799486 49:-0.607427 50:-0.393939 51:-0.42492 52:0.00740741 53:0.32 54:-0.0702341 55:-0.116667 56:-0.363636 57:-0.477707 58:-0.163636 59:0.111111 60:-0.417178 61:0.262887 
1 1:-0.538426 2:-0.865444 3:-0.94914 4:-0.226231 5:0.198402 6:-0.850649 7:0.368495 8:-0.965484 9:-0.543159 10:0.463635 11:-0.278662 12:-0.314156 13:-0.638263 14:-0.277014 15:0.307079 16:0.782987 17:0.449699 18:0.976074 19:0.458345 20:0.745298 21:0.897063 22:1 23:0.894829 24:0.364505 25:-0.204661 26:-0.255421 27:-0.0423365 28:-0.166234 29:-0.109106 30:-0.202808 31:-0.205459 32:-0.421964 33:-0.620527 34:-0.512917 35:-0.910543 36:-0.8429 37:-0.917981 38:-0.917808 39:-0.956332 40:-0.966206 41:-0.94717 42:-0.943218 43:-0.940814 44:-0.962416 45:-0.943396 46:-0.923077 47:-0.898592 48:-0.928021 49:-0.915119 50:-0.848485 51:-0.878594 52:-0.762963 53:-0.696 54:-0.558528 55:-0.0916667 56:0.919192 57:1 58:1 59:1 60:0.282232 61:0.385035 
1 1:1 2:-0.997978 3:-0.984976 4:-0.28066 5:0.206427 6:-0.995001 7:0.382524 8:-0.993237 9:-0.284955 10:0.432511 11:-0.221386 12:-0.54104 13:-0.672941 14:-0.388293 15:-0.0525646 16:-0.0323464 17:-0.299694 18:-0.0100274 19:0.0758704 20:0.213914 21:0.126037 22:0.367485 23:0.304167 24:0.192355 25:0.254171 26:0.265163 27:0.300008 28:0.482416 29:-0.263544 30:0.215053 31:-0.423223 32:0.236235 33:-0.705297 34:-0.512339 35:-0.565495 36:-0.492447 37:-0.735016 38:-0.625571 39:-0.871907 40:-0.840246 41:-0.612579 42:-0.587802 43:-0.536375 44:-0.285906 45:-0.0113208 46:1 47:1 48:1 49:0.633952 50:0.533333 51:0.399361 52:0.511111 53:0.536 54:0.170569 55:0.166667 56:-0.0707071 57:-0.375796 58:-0.2 59:0.444444 60:0.154019 61:0.256173 
1 1:-0.517257 2:-0.938944 3:-0.925516 4:-0.243096 5:0.17496 6:-0.950482 7:0.357165 8:-0.971329 9:-0.872125 10:0.456256 11:-0.272602 12:-0.637837 13:-0.660919 14:-0.647913 15:-0.736165 16:-0.773529 17:-0.390179 18:-0.464769 19:-0.525497 20:-0.513979 21:-0.28637 22:-0.399021 23:-0.19885 24:-0.304433 25:-0.0353989 26:-0.248659 27:-0.0123897 28:-0.0998705 29:0.391802 30:-0.353101 31:-0.140052 32:-0.499857 33:-0.261386 34:-0.548533 35:-0.961661 36:-0.987915 37:-0.990536 38:-0.972603 39:-0.983988 40:-0.990783 41:-0.984906 42:-0.985279 43:-0.970407 44:-0.951678 45:-0.950943 46:-0.912088 47:-0.76338 48:-0.742931 49:-0.708223 50:-0.442424 51:-0.162939 52:-0.148148 53:0.144 54:-0.204013 55:-0.325 56:-0.505051 57:-0.528662 58:-0.127273 59:0.111111 60:-0.326808 61:0.281571 
1 1:-0.288541 2:-0.968254 3:-0.941607 4:-0.261047 5:0.18995 6:-0.978068 7:0.372486 8:-0.990402 9:-0.845927 10:0.465797 11:-0.254404 12:-0.607399 13:-0.63258 14:-0.593476 15:-0.47561 16:-0.385532 17:-0.476009 18:-0.343681 19:-0.360481 20:-0.541088 21:-0.233135 22:-0.387275 23:-0.0444237 24:-0.428914 25:-0.0163585 26:-0.656561 27:0.0886042 28:-0.524152 29:0.0957322 30:-0.579538 31:-0.0387354 32:-0.62738 33:-0.106544 34:-0.546933 35:-1 36:-0.981873 37:-0.984227 38:-0.931507 39:-0.979622 40:-0.981567 41:-0.98239 42:-0.962145 43:-0.933416 44:-0.922148 45:-0.822642 46:-0.67033 47:-0.611268 48:-0.521851 49:-0.267905 50:-0.187879 51:0.0926518 52:0.288889 53:0.416 54:-0.137124 55:-0.258333 56:-0.222222 57:-0.55414 58:-0.272727 59:-0.111111 60:-0.457524 61:0.189426 
1 1:-0.697193 2:-0.87752 3:-0.92141 4:-0.217801 5:0.14203 6:-0.882386 7:0.304656 8:-0.913338 9:-0.892897 10:0.450968 11:-0.252905 12:-0.707437 13:-0.659875 14:-0.709135 15:0.102419 16:-0.0216589 17:-0.0476937 18:-0.0293312 19:-0.327393 20:-0.212218 21:-0.172552 22:-0.316903 23:-0.156786 24:-0.300559 25:-0.146775 26:-0.449274 27:-0.157244 28:-0.638752 29:-0.00367137 30:-0.411121 31:-0.186519 32:-0.491435 33:-0.60462 34:-0.674834 35:-0.923323 36:-0.909366 37:-0.977918 38:-0.890411 39:-0.970888 40:-0.96467 41:-0.969811 42:-0.985279 43:-0.960543 44:-0.957047 45:-0.958491 46:-0.901099 47:-0.932394 48:-0.897172 49:-0.925729 50:-0.890909 51:-0.878594 52:-0.674074 53:-0.744 54:-0.632107 55:-0.241667 56:-0.0808081 57:-0.159236 58:-0.454545 59:-0.444444 60:0.271133 61:0.352805 
1 1:-0.203405 2:-0.931822 3:-0.859309 4:-0.238945 5:0.190403 6:-0.96853 7:0.374991 8:-0.988194 9:-0.61674 10:-1 11:-0.275436 12:-0.0675438 13:1 14:-0.0291787 15:0.113424 16:0.38523 17:0.14488 18:-0.011244 19:-0.275281 20:0.130067 21:-0.60898 22:-0.0400004 23:-0.00259532 24:0.430737 25:0.256745 26:0.576413 27:0.365442 28:0.805546 29:0.231039 30:1 31:0.170435 32:0.918937 33:-0.444819 34:0.150154 35:-0.99361 36:-0.987915 37:-0.987382 38:-0.96347 39:-0.992722 40:-0.987711 41:-0.969811 42:-0.981073 43:-0.95561 44:-0.946309 45:-0.879245 46:-0.791209 47:-0.774648 48:-0.681234 49:-0.506631 50:-0.230303 51:0.220447 52:0.977778 53:1 54:0.431438 55:0.025 56:0.020202 57:-0.159236 58:0.0909091 59:0.666667 60:-0.410279 61:0.449006 
1 1:-0.790152 2:-0.73065 3:-0.738855 4:-0.116256 5:0.155864 6:-0.788226 7:0.337718 8:-0.973004 9:-0.901713 10:0.453514 11:-0.264018 12:-0.680846 13:-0.659746 14:-0.682846 15:-0.347298 16:-0.107438 17:-0.570671 18:-0.151896 19:-0.572697 20:-0.25972 21:-0.45366 22:-0.278219 23:-0.242695 24:-0.203792 25:-0.0284929 26:0.0383527 27:-0.487493 28:0.119141 29:-0.481884 30:0.0488537 31:-0.365763 32:-0.183469 33:-0.357944 34:-0.60908 35:-0.961661 36:-0.975831 37:-0.971609 38:-0.968037 39:-0.991266 40:-0.981567 41:-0.992453 42:-0.976866 43:-0.985203 44:-0.97047 45:-0.977358 46:-0.950549 47:-0.95493 48:-0.938303 49:-0.94695 50:-0.90303 51:-0.891374 52:-0.859259 53:-0.904 54:-0.73913 55:-0.641667 56:-0.0909091 57:-0.0955414 58:-0.0545455 59:-0.111111 60:0.187974 61:0.512591 
1 1:-0.834791 2:-0.827919 3:-0.739008 4:-0.168322 5:0.18648 6:-0.898368 7:0.370289 8:-0.985872 9:-0.94421 10:0.452356 11:-0.254538 12:-0.810372 13:-0.661119 14:-0.815886 15:-0.23902 16:-0.578795 17:0.0748307 18:-0.734847 19:0.0352724 20:-0.652633 21:-0.0995309 22:-0.234554 23:-0.378936 24:-0.218763 25:-0.693414 26:-0.325922 27:-0.571887 28:-0.245763 29:-0.751645 30:-0.44018 31:-0.451847 32:-0.651667 33:-0.419829 34:-0.473543 35:-0.884984 36:-0.613293 37:-0.817035 38:-0.945205 39:-0.994178 40:-0.995392 41:-0.992453 42:-0.991588 43:-1 44:-0.994631 45:-0.988679 46:-0.994505 47:-0.983099 48:-0.984576 49:-0.962865 50:-0.963636 51:-0.974441 52:-0.97037 53:-0.928 54:-0.892977 55:-0.791667 56:-0.525253 57:-0.579618 58:-0.0545455 60:0.573972 61:-0.0860257 
1 1:-0.891855 2:-0.64771 3:-0.641854 4:-0.0657187 5:0.11872 6:-0.741992 7:0.309412 8:-0.959777 9:-0.963262 10:0.452312 11:-0.262675 12:-0.823121 13:-0.58759 14:-0.828548 15:-0.284048 16:-0.132573 17:-0.691731 18:-0.423988 19:-0.742398 20:-0.527271 21:-0.626019 22:-0.292609 23:-0.198924 24:0.056206 25:-0.296201 26:-0.428188 27:-0.274038 28:-0.387571 29:-0.386403 30:-0.526669 31:-0.328917 32:-0.419428 33:-0.514511 34:-0.724351 35:-0.98722 36:-0.987915 37:-0.993691 38:-0.990868 39:-0.995633 40:-0.993856 41:-0.977358 42:-0.989485 43:-0.992602 44:-0.978523 45:-0.988679 46:-0.923077 47:-0.960563 48:-0.933162 49:-0.925729 50:-0.89697 51:-0.71246 52:-0.725926 53:-0.768 54:-0.926421 55:-0.958333 56:-0.979798 57:-0.987261 58:-0.927273 59:-1 60:0.0701485 61:0.582385 
1 1:-0.845375 2:-0.641546 3:-0.635756 4:-0.0636149 5:0.131198 6:-0.742023 7:0.320409 8:-0.969822 9:-0.948196 10:0.45498 11:1 12:-0.772112 13:-1 14:-0.776644 15:-0.230907 16:-0.653545 17:-0.368593 18:-0.753435 19:-0.321448 20:-0.666609 21:-0.139648 22:-0.56246 23:-0.248974 24:-0.311794 25:-0.0529697 26:-0.442062 27:0.321283 28:-0.457288 29:0.204538 30:-0.571618 31:-0.0117672 32:-0.701386 33:-0.678329 34:-0.583385 35:-0.955272 36:-0.975831 37:-0.993691 38:-0.981735 39:-0.997089 40:-0.987711 41:-0.992453 42:-0.993691 43:-0.990136 44:-0.978523 45:-0.973585 46:-0.945055 47:-0.926761 48:-0.969152 49:-0.925729 50:-0.933333 51:-0.884984 52:-0.859259 53:-0.88 54:-0.826087 55:-0.666667 56:-0.484848 57:-0.503185 58:-0.345455 60:0.044589 61:0.470361 
1 1:0.101243 2:-0.981669 3:-0.923578 4:-0.29534 5:0.193196 6:-0.999631 7:0.384265 8:-0.992204 9:-0.696224 10:0.445033 11:-0.264891 12:-0.447188 13:-0.630555 14:-0.405494 15:-0.376703 16:-0.430398 17:-0.361373 18:-0.462895 19:-0.570433 20:-0.467581 21:-0.425145 22:-0.359021 23:-0.208362 24:-0.3586 25:-0.425299 26:-0.313469 27:-0.267402 28:-0.269763 29:-0.31946 30:-0.189661 31:-0.231665 32:-0.0578617 33:-0.398176 34:-0.0569329 35:-0.98722 36:-0.975831 37:-0.971609 38:-0.853881 39:-0.957787 40:-0.941628 41:-0.826415 42:-0.821241 43:-0.61529 44:-0.508725 45:-0.181132 46:0.307692 47:0.425352 48:0.347044 49:0.071618 50:-0.0727273 51:-0.258786 52:-0.266667 53:-0.376 54:-0.585284 55:-0.575 56:-0.666667 57:-0.796178 58:-0.672727 59:-0.777778 60:-0.524876 61:-0.182462 
1 1:-0.358951 2:-0.899087 3:-0.788119 4:-0.225077 5:0.191197 6:-0.965643 7:0.376443 8:-0.985947 9:-0.708915 10:0.448264 11:-0.246802 12:-0.105158 13:-0.654923 14:-0.106678 15:0.697337 16:-0.122602 17:0.0766357 18:-0.0158699 19:0.0137525 20:-0.257225 21:0.397876 22:-0.0753865 23:-0.00339656 24:-0.186896 25:-0.194775 26:-0.237761 27:-0.239486 28:-0.145263 29:0.327453 30:0.0127928 31:-0.0382616 32:-0.164937 33:-0.458964 34:-0.510539 35:-1 36:-1 37:-0.981073 38:-0.981735 39:-0.992722 40:-0.989247 41:-0.972327 42:-0.976866 43:-0.965475 44:-0.962416 45:-0.90566 46:-0.884615 47:-0.830986 48:-0.742931 49:-0.782493 50:-0.569697 51:-0.335463 52:-0.0592593 53:0.344 54:0.505017 55:0.758333 56:0.353535 57:-0.0318471 58:0.309091 59:-0.222222 60:-0.35002 61:0.554772 
1 1:0.1896 2:-0.996065 3:-0.964021 4:-0.282276 5:0.205415 6:-0.999405 7:0.382352 8:-0.994114 9:-0.730965 10:0.463011 11:-0.251229 12:-0.686907 13:-0.64591 14:-0.658664 15:-0.4705 16:-0.465005 17:-0.364407 18:-0.471591 19:-0.398083 20:-0.367256 21:-0.41433 22:-0.344909 23:-0.426378 24:-0.323176 25:-0.512973 26:-0.372713 27:-0.202732 28:-0.301621 29:0.272786 30:-0.18834 31:0.202785 32:-0.115597 33:-0.275919 34:-0.146376 35:-0.968051 36:-0.909366 37:-0.911672 38:-0.744292 39:-0.86754 40:-0.791091 41:-0.559748 42:-0.560463 43:-0.548705 44:-0.430872 45:-0.0830189 46:0.543956 47:0.290141 48:-0.244216 49:-0.363395 50:-0.387879 51:-0.591054 52:-0.422222 53:-0.536 54:-0.545151 55:-0.7 56:-0.69697 57:-0.847134 58:-0.781818 59:-0.222222 60:-0.428715 61:-0.362633 
1 1:-0.933272 2:-0.657431 3:-0.220347 4:-0.122691 5:0.0779983 6:-0.935555 7:0.346263 8:-0.956889 9:-0.968514 10:0.452975 11:-0.259203 12:-0.892247 13:-0.668648 14:-0.893558 15:0.497961 16:-0.388902 17:0.17442 18:-0.604557 19:-0.998875 20:-0.996208 21:-0.721717 22:-0.736797 23:-0.576937 24:-0.547872 25:-0.698624 26:-0.556918 27:-0.428008 28:-0.18529 29:-0.497373 30:-0.358639 31:-0.427143 32:-0.608161 33:-0.658991 34:-0.687988 35:-1 36:-1 37:-0.993691 38:-0.981735 39:-0.989811 40:-0.987711 41:-0.972327 42:-0.970557 43:-0.965475 44:-0.962416 45:-0.935849 46:-0.928571 47:-0.938028 48:-0.958869 49:-0.96817 50:-0.969697 51:-0.99361 52:-0.97037 53:-0.952 54:-0.986622 55:-0.983333 56:-1 57:-1 58:-1 59:-0.888889 60:-0.245848 61:-0.0708185 
1 1:-0.433502 2:-0.944504 3:-0.890968 4:-0.245832 5:0.200207 6:-0.970106 7:0.379276 8:-0.985353 9:-0.77896 10:0.470355 11:-0.247095 12:-0.373569 13:-0.664617 14:-0.385949 15:0.295084 16:-0.473534 17:0.357851 18:0.120033 19:0.0543019 20:-0.465043 21:0.529692 22:-0.235008 23:0.0312473 24:-0.0848569 25:0.128786 26:0.241879 27:0.462426 28:-0.0562473 29:-0.0103245 30:0.309511 31:0.195072 32:0.408083 33:-0.452858 34:-0.27172 35:-0.98722 36:-0.993958 37:-0.971609 38:-0.972603 39:-0.975255 40:-0.970814 41:-0.934591 42:-0.934805 43:-0.901356 44:-0.863087 45:-0.815094 46:-0.489011 47:-0.487324 48:-0.398458 49:-0.230769 50:-0.224242 51:-0.207668 52:-0.148148 53:-0.36 54:-0.67893 55:-0.783333 56:-0.878788 57:-0.936306 58:-0.963636 59:-1 60:-0.556406 61:0.0980675 
1 1:-0.605614 2:-0.948076 3:-0.999628 4:-0.280838 5:0.197579 6:-0.933591 7:0.322119 8:-0.911043 9:-0.910254 10:0.549482 11:0.514018 12:-0.843933 13:-0.660596 14:-0.846232 15:-0.605931 16:-0.385768 17:-0.254967 18:-0.466065 19:-0.290486 20:-0.508956 21:-0.275484 22:-0.530584 23:-0.33734 24:-0.51354 25:-0.418409 26:-0.458822 27:-0.268782 28:-0.439542 29:-0.232868 30:-0.48557 31:-0.380691 32:-0.417638 33:-0.327226 34:-0.421019 35:-0.968051 36:-0.981873 37:-0.987382 38:-0.96347 39:-0.982533 40:-0.986175 41:-0.96478 42:-0.97266 43:-0.950678 44:-0.938255 45:-0.837736 46:-0.741758 47:-0.656338 48:-0.562982 49:-0.591512 50:-0.393939 51:-0.233227 52:-0.414815 53:-0.528 54:-0.665552 55:-0.858333 56:-0.909091 57:-0.974522 58:-0.963636 59:-0.888889 60:-0.526955 61:0.0137271 
1 1:0.556374 2:-0.999981 3:-0.977479 4:-0.284453 5:0.210306 6:-1 7:0.383296 8:-0.994063 9:-0.552715 10:0.49444 11:-0.290614 12:-0.683667 13:-0.668519 14:-0.591079 15:-0.233928 16:-0.300729 17:-0.0966076 18:-0.376317 19:-0.165918 20:-0.366286 21:-0.165357 22:-0.31676 23:-0.263455 24:-0.390124 25:-0.117849 26:-0.428681 27:0.103125 28:-0.35225 29:0.416346 30:-0.365768 31:0.185228 32:-0.454802 33:-0.309911 34:-0.409327 35:-0.795527 36:-0.311178 37:-0.305994 38:0.360731 39:-0.666667 40:-0.540707 41:-0.157233 42:-0.297581 43:-0.196054 44:-0.438926 45:-0.411321 46:-0.269231 47:-0.447887 48:-0.676093 49:-0.766578 50:-0.672727 51:-0.782748 52:-0.644444 53:-0.472 54:-0.605351 55:-0.341667 56:-0.232323 57:-0.312102 58:-0.272727 59:-0.222222 60:0.174663 61:-0.159806 
1 1:-0.425679 2:-0.966966 3:-0.924491 4:-0.319294 5:0.26419 6:-0.977202 7:0.351262 8:-0.935039 9:-0.865408 10:1 11:-1 12:-0.777405 13:-0.65909 14:-0.759095 15:-0.427248 16:-0.51663 17:-0.251422 18:-0.210922 19:-0.2969 20:-0.216317 21:-0.395129 22:-0.0432832 23:-0.397957 24:-0.409428 25:-0.436272 26:-0.430238 27:-0.418059 28:-0.364366 29:-0.278148 30:-0.255087 31:-0.333187 32:-0.312965 33:-0.380418 34:-0.339127 35:-0.936102 36:-0.951662 37:-0.993691 38:-0.995434 39:-0.997089 40:-0.996928 41:-0.997484 42:-0.991588 43:-0.982737 44:-0.975839 45:-0.94717 46:-0.813187 47:-0.729577 48:-0.51671 49:-0.299735 50:0.0424242 51:0.258786 52:0.318519 53:0.184 54:-0.244147 55:-0.591667 56:-0.828283 57:-0.859873 58:-1 59:-1 60:-0.552558 61:0.119648 
1 1:-0.843994 2:-0.716775 3:-0.850042 4:-0.140941 5:0.11197 6:-0.725761 7:0.256026 8:-0.908331 9:-0.947597 10:0.457841 11:-0.265445 12:-0.760088 13:-0.661371 14:-0.762446 15:-0.339824 16:-0.452036 17:-0.330094 18:-0.563597 19:-0.358466 20:-0.602028 21:-0.334943 22:-0.397331 23:-0.323835 24:-0.483965 25:-0.152893 26:-0.555033 27:0.0173025 28:-0.624993 29:0.0590046 30:-0.662509 31:-0.210871 32:-0.650572 33:-0.646186 34:-0.628453 35:-0.923323 36:-0.830816 37:-0.829653 38:-0.90411 39:-0.995633 40:-0.995392 41:-0.997484 42:-1 43:-0.990136 44:-0.991946 45:-0.984906 46:-0.967033 47:-0.983099 48:-0.984576 49:-0.97878 50:-0.981818 51:-0.910543 52:-0.925926 53:-0.856 54:-0.832776 55:-0.725 56:-0.555556 57:-0.719745 58:-0.272727 59:-0.333333 60:0.507528 61:-0.00140517 
1 1:-0.867004 2:-0.874795 3:-0.707236 4:-0.369259 5:0.346942 6:-0.959318 7:0.331092 8:-0.902369 9:-0.969665 10:0.455251 11:-0.260771 12:-0.952538 13:-0.660095 14:-0.948061 15:-0.607644 16:-0.388657 17:-0.407491 18:-0.378819 19:-0.501309 20:-0.31424 21:-0.246739 22:-0.211037 23:-0.610925 24:-0.478265 25:-0.641588 26:-0.433444 27:-0.683253 28:-0.521928 29:-0.638711 30:-0.492716 31:-0.629106 32:-0.637856 33:-0.633926 34:-0.459846 35:-0.974441 36:-0.963746 37:-0.971609 38:-0.96347 39:-0.9869 40:-0.986175 41:-0.974843 42:-0.968454 43:-0.982737 44:-0.973154 45:-0.954717 46:-0.93956 47:-0.938028 48:-0.953728 49:-0.93634 50:-0.957576 51:-0.955272 52:-0.925926 53:-0.92 54:-0.87291 55:-0.816667 56:-0.676768 57:-0.707006 58:-0.454545 59:-0.222222 60:0.0844443 61:-0.013541 
1 1:-0.531983 2:-0.910261 3:-0.888229 4:-0.224746 5:0.194641 6:-0.932758 7:0.373411 8:-0.981331 9:-0.837185 10:0.452167 11:-0.258388 12:-0.383194 13:-0.663131 14:-0.417858 15:-0.0856682 16:-0.249036 17:-0.557337 18:-0.0966838 19:-0.550247 20:-0.242562 21:-0.447055 22:-0.220279 23:-0.340579 24:-0.268808 25:0.0687761 26:-0.0863974 27:-0.0212096 28:0.0617045 29:0.143607 30:0.0248668 31:-0.460881 32:-0.185054 33:-0.238188 34:-0.627927 35:-0.948882 36:-0.993958 37:-0.990536 38:-0.990868 39:-0.995633 40:-0.986175 41:-0.98239 42:-0.974763 43:-0.958076 44:-0.957047 45:-0.924528 46:-0.862637 47:-0.853521 48:-0.706941 49:-0.602122 50:-0.357576 51:-0.316294 52:-0.0888889 53:-0.024 54:-0.297659 55:-0.35 56:-0.494949 57:-0.541401 58:-0.527273 59:-0.888889 60:-0.261204 61:0.409532 
1 1:-0.795674 2:-0.816517 3:-0.722155 4:-0.156294 5:0.202203 6:-0.883744 7:0.379828 8:-0.988398 9:-0.942903 10:0.450671 11:-0.255546 12:-0.703888 13:-0.660437 14:-0.719344 15:-0.454919 16:-0.193789 17:-0.336833 18:-0.401445 19:-0.551704 20:-0.440957 21:-0.351248 22:-0.194827 23:-0.201332 24:-0.447433 25:0.0258727 26:-0.679094 27:0.133281 28:-0.518815 29:0.116159 30:-0.659686 31:-0.191024 32:-0.668883 33:-0.395664 34:-0.565252 35:-0.99361 36:-1 37:-0.996845 38:-0.990868 39:-0.994178 40:-0.984639 41:-0.977358 42:-0.974763 43:-0.940814 44:-0.957047 45:-0.867925 46:-0.714286 47:-0.723944 48:-0.840617 49:-0.835544 50:-0.739394 51:-0.757188 52:-0.77037 53:-0.792 54:-0.93311 55:-0.916667 56:-0.939394 57:-0.974522 58:-0.890909 59:-0.666667 60:-0.355363 61:0.0150627 
1 1:-0.479061 2:-0.926277 3:-0.891582 4:-0.233407 5:0.20363 6:-0.948913 7:0.380608 8:-0.987686 9:-0.81419 10:0.461555 11:-0.277208 12:-0.413243 13:-0.660398 14:-0.425849 15:-0.165284 16:0.0441107 17:-0.307416 18:-0.158063 19:-0.55594 20:-0.102751 21:-0.485639 22:0.0448721 23:-0.344926 24:-0.1401 25:-0.232036 26:-0.224606 27:-0.0119805 28:-0.0575856 29:0.00472199 30:-0.258702 31:-0.149322 32:-0.257807 33:-0.157901 34:-0.437198 35:-0.99361 36:-0.975831 37:-0.984227 38:-0.972603 39:-0.989811 40:-0.986175 41:-0.987421 42:-0.974763 43:-0.963009 44:-0.946309 45:-0.898113 46:-0.763736 47:-0.695775 48:-0.62982 49:-0.480106 50:-0.30303 51:-0.0479233 52:0.0148148 53:-0.064 54:-0.464883 55:-0.375 56:-0.484848 57:-0.656051 58:-0.781818 59:-0.777778 60:-0.349477 61:0.445144 
1 1:-0.838932 2:-0.649461 3:-0.650452 4:-0.0698341 5:0.132035 6:-0.74532 7:0.320153 8:-0.968328 9:-0.943605 10:0.458776 11:-0.269716 12:-0.741715 13:-0.660239 14:-0.747991 15:-0.186653 16:-0.262884 17:-0.00668587 18:-0.580933 19:-0.401107 20:-0.453258 21:-0.213564 22:-0.480678 23:-0.116011 24:-0.113011 25:-0.327384 26:-0.475629 27:-0.191302 28:-0.465139 29:-0.0658405 30:-0.434449 31:-0.199904 32:-0.554692 33:-0.560305 34:-0.534542 35:-0.968051 36:-0.975831 37:-0.996845 38:-0.990868 39:-0.992722 40:-0.993856 41:-0.984906 42:-0.987382 43:-0.992602 44:-0.965101 45:-0.977358 46:-0.950549 47:-0.938028 48:-0.933162 49:-0.915119 50:-0.921212 51:-0.872204 52:-0.8 53:-0.784 54:-0.819398 55:-0.666667 56:-0.505051 57:-0.605096 58:-0.563636 59:-0.444444 60:0.0428486 61:0.493042 
1 1:-0.227335 2:-0.916056 3:-0.870601 4:-0.227975 5:0.191889 6:-0.948012 7:0.373377 8:-0.989363 9:-0.611714 10:0.460847 11:-0.267326 12:-0.0460911 13:-0.739504 14:-0.000190072 15:0.293673 16:-0.126379 17:0.15303 18:-0.150157 19:-0.112107 20:-0.168674 21:-0.217999 22:-0.123835 23:-0.0679835 24:-0.15515 25:-0.0480723 26:0.0514597 27:-0.0943158 28:0.344441 29:-0.151429 30:0.148405 31:-0.2788 32:0.254413 33:-0.511168 34:-0.237136 35:-1 36:-1 37:-0.977918 38:-0.972603 39:-0.978166 40:-0.975422 41:-0.969811 42:-0.97266 43:-0.967941 44:-0.93557 45:-0.90566 46:-0.857143 47:-0.769014 48:-0.866324 49:-0.618037 50:-0.587879 51:0.0607029 52:0.37037 53:0.984 54:1 55:0.725 56:0.232323 57:-0.171975 58:-0.236364 59:-0.222222 60:-0.366513 61:0.494733 
1 1:-0.908422 2:-0.833334 3:-0.799027 4:-0.168315 5:0.362993 6:-0.868637 7:0.506377 8:-0.827387 9:-0.980818 10:0.454627 11:-0.256981 12:-0.935046 13:-0.659683 14:-0.933447 15:-0.235265 16:0.127495 17:-0.83724 18:-0.748932 19:-0.774697 20:-0.69316 21:-0.657765 22:-0.356276 23:-0.517619 24:-0.211722 25:-0.718286 26:-0.214571 27:-0.751224 28:-0.202859 29:-0.67047 30:-0.33231 31:-0.759811 32:-0.681586 33:-0.787406 34:-0.424851 35:-0.98722 36:-0.993958 37:-0.993691 38:-0.986301 39:-0.998544 40:-0.993856 41:-0.987421 42:-0.989485 43:-0.990136 44:-0.965101 45:-0.954717 46:-0.956044 47:-0.949296 48:-0.928021 49:-0.931034 50:-0.884848 51:-0.891374 52:-0.866667 53:-0.88 54:-0.886288 55:-0.933333 56:-0.909091 57:-0.987261 58:-0.927273 59:-0.777778 60:-0.324338 61:-0.0151017 
1 1:-0.290382 2:-0.903974 3:-0.858278 4:-0.221451 5:0.180003 6:-0.941516 7:0.365672 8:-0.986393 9:-0.687225 10:0.469773 11:-0.21727 12:-0.0579221 13:-0.611306 14:-0.0302949 15:0.135391 16:-0.135582 17:0.345869 18:-0.223574 19:0.00347354 20:-0.313604 21:-0.183653 22:-0.22756 23:0.038977 24:-0.267777 25:0.259981 26:-0.176347 27:0.242045 28:-0.124101 29:0.2888 30:-0.156293 31:0.103918 32:-0.228123 33:-0.314939 34:-0.34686 35:-0.980831 36:-0.969789 37:-0.981073 38:-0.968037 39:-0.991266 40:-0.986175 41:-0.974843 42:-0.985279 43:-0.972873 44:-0.967785 45:-0.89434 46:-0.884615 47:-0.769014 48:-0.753213 49:-0.745358 50:-0.563636 51:-0.246006 52:-0.0148148 53:0.608 54:0.692308 55:1 56:0.464646 57:-0.0828025 58:0.309091 59:0.666667 60:-0.377472 61:0.550124 
1 1:-0.942936 2:-0.742682 3:-0.827664 4:-0.142495 5:0.149025 6:-0.764143 7:0.315632 8:-0.968272 9:-0.985896 10:0.45459 11:-0.258131 12:-0.880363 13:-0.659954 14:-0.884929 15:-0.137972 16:-0.424741 17:-0.263609 18:-0.569679 19:-0.536962 20:-0.297417 21:-0.848426 22:-0.654854 23:-0.913545 24:-0.774373 25:-0.92 26:-0.687439 27:-0.907557 28:-0.64115 29:-0.763301 30:-0.398687 31:-0.551742 32:-0.610586 33:-0.896263 34:-0.595551 35:-0.974441 36:-0.885196 37:-0.927445 38:-0.958904 39:-0.995633 40:-0.996928 41:-1 42:-1 43:-0.997534 44:-0.994631 45:-0.992453 46:-0.983516 47:-0.994366 48:-0.994859 49:-0.984085 50:-0.981818 51:-0.98722 52:-0.97037 53:-0.96 54:-0.953177 55:-0.933333 56:-0.878788 57:-0.898089 58:-0.818182 59:-0.777778 60:0.519022 61:-0.205503 
1 1:-0.740911 2:-0.896762 3:-0.787208 4:-0.355641 5:0.365824 6:-0.961063 7:0.315532 8:-0.818078 9:-0.888222 10:0.460238 11:-0.249607 12:-0.8535 13:-0.658706 14:-0.846625 15:-0.23678 16:-0.442239 17:-0.0394402 18:-0.480653 19:0.0772615 20:-0.562913 21:0.392818 22:-0.593482 23:0.246765 24:-0.551429 25:0.170799 26:-0.557497 27:0.17008 28:-0.660304 29:-0.27118 30:-0.307707 31:-0.316225 32:-0.267341 33:-0.495521 34:-0.504164 35:-0.833866 36:-0.939577 37:-0.971609 38:-0.977169 39:-0.985444 40:-0.989247 41:-0.972327 42:-0.957939 43:-0.972873 44:-0.957047 45:-0.935849 46:-0.917582 47:-0.892958 48:-0.907455 49:-0.872679 50:-0.806061 51:-0.795527 52:-0.696296 53:-0.576 54:-0.672241 55:-0.608333 56:-0.484848 57:-0.656051 58:-0.563636 59:-0.333333 60:0.00921073 61:0.055352 
1 1:-0.735849 2:-0.839065 3:-0.821981 4:-0.179728 5:0.186567 6:-0.876573 7:0.366177 8:-0.982504 9:-0.912881 10:0.451121 11:-0.238051 12:-0.635483 13:-0.63034 14:-0.653626 15:0.150776 16:-0.286355 17:-0.177337 18:-0.550573 19:-0.389906 20:-0.651508 21:-0.517817 22:-0.332915 23:-0.45938 24:-0.472336 25:-0.266177 26:-0.266008 27:-0.552082 28:0.181007 29:-0.495251 30:0.0506038 31:-0.466715 32:-0.432865 33:-0.530268 34:-0.618869 35:-0.98722 36:-0.987915 37:-0.996845 38:-0.990868 39:-0.991266 40:-0.993856 41:-0.98239 42:-0.962145 43:-0.950678 44:-0.903356 45:-0.739623 46:-0.571429 47:-0.64507 48:-0.804627 49:-0.803714 50:-0.793939 51:-0.763578 52:-0.674074 53:-0.752 54:-0.852843 55:-0.958333 56:-0.939394 57:-0.923567 58:-0.745455 59:-0.555556 60:-0.365585 61:-0.049013 
1 1:-0.827428 2:-0.738532 3:-0.816006 4:-0.136642 5:0.107219 6:-0.765734 7:0.272214 8:-0.915162 9:-0.933635 10:0.454654 11:-0.248479 12:-0.763654 13:-0.654083 14:-0.763904 15:0.0354685 16:-0.426377 17:-0.0526977 18:-0.356131 19:-0.133555 20:-0.504637 21:-0.304771 22:-0.515562 23:-0.251006 24:-0.461106 25:-0.157686 26:-0.522397 27:-0.0190874 28:-0.409163 29:0.0474131 30:-0.476406 31:-0.307194 32:-0.709258 33:-0.649558 34:-0.642225 35:-0.942492 36:-0.854985 37:-0.763407 38:-0.885845 39:-0.995633 40:-0.993856 41:-0.992453 42:-0.991588 43:-0.995068 44:-0.989262 45:-0.984906 46:-0.961538 47:-0.966197 48:-0.984576 49:-0.962865 50:-0.945455 51:-0.904153 52:-0.918519 53:-0.856 54:-0.859532 55:-0.675 56:-0.747475 57:-0.656051 58:-0.236364 59:0.555556 60:0.517796 61:-0.0397986 
1 1:-0.0676484 2:-0.962009 3:-0.935938 4:-0.25819 5:0.187115 6:-0.975086 7:0.370569 8:-0.988539 9:-0.658019 10:0.446687 11:-0.24861 12:-0.391416 13:-0.676565 14:-0.320086 15:-0.366747 16:-0.351434 17:-0.601161 18:-0.357411 19:-0.520211 20:-0.311378 21:-0.447626 22:-0.114796 23:-0.226219 24:-0.111488 25:-0.137057 26:-0.0727235 27:-0.0657729 28:0.0101921 29:-0.305075 30:-0.0188307 31:-0.353215 32:-0.0656021 33:-0.442529 34:-0.0830663 35:-0.98722 36:-0.993958 37:-0.977918 38:-0.972603 39:-0.973799 40:-0.973886 41:-0.957233 42:-0.95163 43:-0.908755 44:-0.814765 45:-0.615094 46:-0.28022 47:-0.0704225 48:0.0796915 49:0.0291777 50:0.490909 51:0.322684 52:0.207407 53:0.16 54:-0.250836 55:-0.275 56:-0.626263 57:-0.681529 58:-0.672727 59:-0.888889 60:-0.501522 61:0.0700741 
1 1:-0.827428 2:-0.738532 3:-0.816865 4:-0.136743 5:0.110047 6:-0.764822 7:0.274876 8:-0.918861 9:-0.930361 10:0.450653 11:-0.248534 12:-0.761013 13:-0.660007 14:-0.760314 15:-0.01003 16:-0.407352 17:-0.0693343 18:-0.428545 19:-0.122234 20:-0.391487 21:-0.272576 22:-0.539002 23:-0.235211 24:-0.562193 25:-0.165314 26:-0.558326 27:0.0349554 28:-0.402011 29:0.0428982 30:-0.51332 31:-0.270834 32:-0.633967 33:-0.68015 34:-0.664363 35:-0.948882 36:-0.794562 37:-0.791798 38:-0.86758 39:-0.997089 40:-0.995392 41:-0.989937 42:-0.997897 43:-0.997534 44:-0.983893 45:-0.984906 46:-0.972527 47:-0.971831 48:-0.953728 49:-0.95756 50:-0.951515 51:-0.929712 52:-0.881481 53:-0.784 54:-0.852843 55:-0.716667 56:-0.69697 57:-0.605096 58:-0.490909 59:-0.777778 60:0.527549 61:-0.0420096 
1 1:-0.864703 2:-0.815134 3:-0.790192 4:-0.163223 5:0.238001 6:-0.862171 7:0.407638 8:-0.993348 9:-0.974056 10:0.454287 11:-0.253359 12:-0.859861 13:-0.660232 14:-0.860241 15:-0.638725 16:-0.376691 17:-0.583128 18:-0.315655 19:-0.673785 20:-0.44117 21:-0.688194 22:-0.44434 23:-0.821317 24:-0.372389 25:-0.799841 26:-0.412299 27:-0.809604 28:-0.275078 29:-0.766233 30:-0.170656 31:-0.706037 32:-0.0571661 33:-0.816056 34:-0.25292 35:-0.980831 36:-0.987915 37:-0.993691 38:-0.981735 39:-0.994178 40:-0.99232 41:-0.979874 42:-0.983176 43:-0.958076 44:-0.916779 45:-0.871698 46:-0.879121 47:-0.876056 48:-0.907455 49:-0.925729 50:-0.951515 51:-0.904153 52:-0.903704 53:-0.864 54:-0.892977 55:-0.9 56:-0.919192 57:-0.923567 58:-0.709091 59:-0.777778 60:-0.447806 61:-0.0576071 
1 1:-0.421077 2:-0.918309 3:-0.854572 4:-0.223453 5:0.201647 6:-0.946412 7:0.37964 8:-0.980905 9:-0.679522 10:0.484295 11:-0.299853 12:-0.183033 13:-0.659839 14:-0.186308 15:0.161238 16:0.120396 17:0.0155417 18:0.042858 19:0.116602 20:0.142618 21:-0.219476 22:0.430461 23:-0.237121 24:0.417816 25:-0.267293 26:0.0768514 27:0.344511 28:0.33947 29:0.448235 30:0.12379 31:0.347961 32:0.0261195 33:-0.476218 34:-0.314373 35:-0.99361 36:-0.987915 37:-0.987382 38:-0.981735 39:-0.989811 40:-0.986175 41:-0.967296 42:-0.974763 43:-0.945746 44:-0.911409 45:-0.867925 46:-0.78022 47:-0.752113 48:-0.717224 49:-0.564987 50:-0.309091 51:-0.086262 52:0.22963 53:0.12 54:-0.157191 55:-0.3 56:-0.393939 57:-0.490446 58:-0.309091 59:-0.111111 60:-0.36771 61:0.468305 
1 1:-0.823746 2:-0.750142 3:-0.816692 4:-0.137223 5:0.109384 6:-0.766531 7:0.274582 8:-0.916761 9:-0.926388 10:0.455118 11:-0.254877 12:-0.754963 13:-0.656803 14:-0.754708 15:-0.0871371 16:-0.130291 17:-0.0890511 18:-0.136278 19:0.0856927 20:-0.202915 21:-0.257922 22:-0.37063 23:-0.213293 24:-0.52697 25:-0.198126 26:-0.471854 27:-0.0570009 28:-0.415892 29:0.0999855 30:-0.53987 31:-0.275729 32:-0.721486 33:-0.600744 34:-0.598014 35:-0.904153 36:-0.806647 37:-0.776025 38:-0.899543 39:-0.991266 40:-0.995392 41:-0.997484 42:-0.991588 43:-0.990136 44:-0.981208 45:-0.984906 46:-0.967033 47:-0.988732 48:-0.974293 49:-0.973475 50:-0.951515 51:-0.910543 52:-0.866667 53:-0.88 54:-0.812709 55:-0.608333 56:-0.79798 57:-0.643312 58:-0.418182 59:-0.222222 60:0.528512 61:-0.0652708 
1 1:-0.201565 2:-0.994647 3:-0.967003 4:-0.276953 5:0.210751 6:-0.99454 7:0.38434 8:-0.983791 9:-0.721244 10:0.453845 11:-0.245121 12:-0.827266 13:-0.634354 14:-0.817762 15:-0.0459988 16:0.197604 17:0.239889 18:0.353664 19:0.56342 20:0.238444 21:0.482706 22:0.154781 23:-0.00351951 24:-0.348064 25:-0.166705 26:-0.485982 27:-0.217449 28:-0.490924 29:-0.385362 30:-0.57231 31:-0.45403 32:-0.581788 33:-0.594004 34:-0.548112 35:-0.71246 36:0.148036 37:0.381703 38:0.625571 39:-0.697234 40:-0.847926 41:-0.838994 42:-0.890641 43:-0.918619 44:-0.911409 45:-0.890566 46:-0.873626 47:-0.842254 48:-0.861183 49:-0.93634 50:-0.915152 51:-0.801917 52:-0.851852 53:-0.92 54:-0.93311 55:-0.958333 56:-0.939394 57:-0.949045 58:-0.927273 59:-0.888889 60:-0.624746 61:-0.89204 
1 1:-0.978371 2:0.786084 3:-0.127004 4:0.571556 5:0.102318 6:0.566404 7:0.246679 8:-0.967594 9:-0.989412 10:0.454851 11:-0.2591 12:-0.987229 13:-0.660583 14:-0.986505 15:-0.532982 16:-0.671388 17:-0.196199 18:-0.257587 19:-0.287879 20:-0.499817 21:-0.19861 22:-0.309233 23:-0.112709 24:-0.584815 25:-0.165078 26:-0.517112 27:-0.15959 28:-0.295044 29:-0.367379 30:-0.589908 31:-0.566756 32:-0.818741 33:-0.864483 34:-0.964401 35:-1 36:-0.993958 37:-0.996845 38:-1 39:-1 40:-1 41:-0.997484 42:-1 43:-0.997534 44:-0.991946 45:-0.992453 46:-0.983516 47:-0.988732 48:-0.984576 49:-0.984085 50:-0.951515 51:-0.955272 52:-0.955556 53:-0.952 54:-0.986622 55:-1 56:-0.989899 57:-0.974522 58:-1 59:-1 60:-0.532412 61:-0.257543 
1 1:-0.192821 2:-0.994021 3:-0.967019 4:-0.277057 5:0.210179 6:-0.994645 7:0.384087 8:-0.983619 9:-0.70294 10:0.458231 11:-0.251315 12:-0.826604 13:-0.664991 14:-0.812332 15:0.18963 16:0.343898 17:0.485465 18:0.238957 19:0.334538 20:0.239758 21:0.302738 22:-0.150371 23:-0.0295977 24:-0.468604 25:-0.235028 26:-0.564529 27:-0.256973 28:-0.464889 29:-0.469326 30:-0.552754 31:-0.449783 32:-0.566484 33:-0.485757 34:-0.688389 35:-0.769968 36:0.274924 37:0.249211 38:0.6621 39:-0.695779 40:-0.804916 41:-0.831447 42:-0.909569 43:-0.871763 44:-0.908725 45:-0.913208 46:-0.857143 47:-0.870423 48:-0.912596 49:-0.856764 50:-0.90303 51:-0.840256 52:-0.911111 53:-0.88 54:-0.913043 55:-0.9 56:-0.929293 57:-0.974522 58:-0.963636 59:-0.888889 60:-0.635275 61:-0.894071 
1 1:-0.193741 2:-0.996065 3:-0.966708 4:-0.276909 5:0.21034 6:-0.994531 7:0.384162 8:-0.982428 9:-0.697901 10:0.461271 11:-0.266866 12:-0.821682 13:-0.662029 14:-0.811987 15:0.11329 16:0.335375 17:0.592938 18:0.357385 19:0.411641 20:0.168672 21:0.258145 22:0.157461 23:0.177456 24:-0.46772 25:-0.0536257 26:-0.389887 27:-0.476618 28:-0.352246 29:-0.389067 30:-0.57857 31:-0.563292 32:-0.553454 33:-0.322303 34:-0.633843 35:-0.757188 36:0.021148 37:0.299685 38:0.630137 39:-0.672489 40:-0.800307 41:-0.836478 42:-0.880126 43:-0.871763 44:-0.924832 45:-0.924528 46:-0.862637 47:-0.853521 48:-0.8509 49:-0.925729 50:-0.860606 51:-0.897764 52:-0.874074 53:-0.856 54:-0.93311 55:-0.908333 56:-0.939394 57:-0.936306 58:-0.890909 59:-0.888889 60:-0.636157 61:-0.894615 
1 1:-0.973309 2:0.356563 3:-0.219629 4:0.41211 5:0.109588 6:0.162341 7:0.267388 8:-0.975076 9:-0.987497 10:0.454492 11:-0.246394 12:-0.984839 13:-0.640924 14:-0.982603 15:-0.246624 16:-0.871293 17:0.313904 18:-0.498747 19:-0.531311 20:-0.778074 21:-0.00575199 22:-0.55208 23:0.0605674 24:-0.540541 25:-0.100155 26:-0.581647 27:-0.086212 28:-0.614898 29:-0.282723 30:-0.638651 31:-0.537824 32:-0.669263 33:-0.796741 34:-0.747051 35:-1 36:-1 37:-1 38:-1 39:-1 40:-1 41:-0.992453 42:-0.997897 43:-0.997534 44:-0.989262 45:-0.996226 46:-0.983516 47:-0.971831 48:-0.989717 49:-0.931034 50:-0.975758 51:-0.974441 52:-0.955556 53:-0.952 54:-0.986622 55:-0.991667 56:-0.989899 57:-1 58:-0.781818 59:-1 60:-0.464231 61:-0.0861758 
1 1:-0.19052 2:-0.993296 3:-0.9669 4:-0.277035 5:0.210212 6:-0.994645 7:0.3841 8:-0.982542 9:-0.702445 10:0.46604 11:-0.264152 12:-0.818914 13:-0.672345 14:-0.811354 15:0.0478458 16:-0.781091 17:0.0805602 18:0.352307 19:0.355504 20:0.343472 21:0.341912 22:0.240277 23:0.169903 24:-0.262587 25:-0.0633215 26:-0.416672 27:-0.355068 28:-0.425675 29:-0.328777 30:-0.417502 31:-0.577247 32:-0.533054 33:-0.396526 34:-0.565886 35:-0.827476 36:0.166163 37:0.211356 38:0.721461 39:-0.684134 40:-0.812596 41:-0.813836 42:-0.871714 43:-0.893958 44:-0.911409 45:-0.90566 46:-0.824176 47:-0.921127 48:-0.835476 49:-0.909814 50:-0.878788 51:-0.801917 52:-0.888889 53:-0.912 54:-0.913043 55:-0.883333 56:-0.959596 57:-0.987261 58:-0.890909 59:-0.888889 60:-0.634254 61:-0.892507 
1 1:-0.294524 2:-0.990902 3:-0.95307 4:-0.270604 5:0.204257 6:-0.989471 7:0.38151 8:-0.987048 9:-0.727628 10:0.428716 11:-0.2387 12:-0.841419 13:-0.660669 14:-0.80885 15:0.439951 16:0.0357411 17:0.726482 18:0.029866 19:0.453343 20:-0.0708391 21:0.255735 22:-0.0423714 23:0.208895 24:-0.267065 25:-0.206403 26:-0.479034 27:-0.278801 28:-0.442146 29:-0.396956 30:-0.603807 31:-0.524134 32:-0.443779 33:-0.698024 34:-0.702678 35:-0.789137 36:0.0694864 37:0.280757 38:0.917808 39:-0.729258 40:-0.918587 41:-0.927044 42:-0.97266 43:-0.938348 44:-0.932886 45:-0.939623 46:-0.873626 47:-0.926761 48:-0.917738 49:-0.915119 50:-0.909091 51:-0.910543 52:-0.859259 53:-0.92 54:-0.959866 55:-0.925 56:-0.949495 57:-0.949045 58:-0.927273 59:-0.666667 60:-0.728747 61:-0.951109 
1 1:-0.0184077 2:-0.98715 3:-0.953015 4:-0.272416 5:0.219293 6:-0.991702 7:0.387988 8:-0.98599 9:-0.660161 10:0.455011 11:-0.263053 12:-0.735532 13:-0.661371 14:-0.685705 15:-0.435551 16:-0.392995 17:0.0995823 18:0.0396773 19:0.1685 20:0.0523231 21:0.0237497 22:-0.0267337 23:-0.0747377 24:0.0351265 25:0.203698 26:0.120168 27:-0.0150148 28:0.0293262 29:0.0167856 30:-0.238553 31:-0.228842 32:-0.345276 33:-0.428449 34:-0.41075 35:-0.891374 36:-0.564955 37:-0.520505 38:0.13242 39:-0.63901 40:-0.552995 41:-0.391195 42:-0.62776 43:-0.674476 44:-0.828188 45:-0.841509 46:-0.741758 47:-0.605634 48:-0.763496 49:-0.777188 50:-0.563636 51:-0.648562 52:-0.62963 53:-0.752 54:-0.919732 55:-0.925 56:-0.929293 57:-0.936306 58:-0.745455 59:-1 60:-0.76676 61:-0.889807 
1 1:-0.979751 2:0.727742 3:-0.170666 4:0.532679 5:0.110114 6:0.502395 7:0.256264 8:-0.982618 9:-0.99424 10:0.45498 11:-0.258252 12:-0.990714 13:-0.660331 14:-0.989479 15:-0.604717 16:-0.841727 17:-0.375631 18:-0.681152 19:-0.356769 20:-0.764006 21:-0.110852 22:-0.719051 23:-0.352686 24:-0.773123 25:-0.415677 26:-0.668382 27:-0.171599 28:-0.661883 29:-0.208794 30:-0.839027 31:-0.791885 32:-0.917489 33:-1 34:-1 35:-1 36:-1 37:-1 38:-1 39:-1 40:-0.998464 41:-1 42:-1 43:-1 44:-1 45:-0.992453 46:-0.994505 47:-0.988732 48:-0.989717 49:-0.98939 50:-0.981818 51:-0.961661 52:-0.97037 53:-0.944 54:-0.939799 55:-0.975 56:-0.979798 57:-0.987261 58:-0.963636 59:-0.666667 60:-0.618492 61:-0.164288 
1 1:-0.57202 2:-0.947782 3:-0.990356 4:-0.267666 5:0.225689 6:-0.92844 7:0.431578 8:-0.938941 9:-0.859145 10:0.455774 11:-0.254748 12:-0.812627 13:-0.659594 14:-0.807515 15:-0.0539081 16:-0.403975 17:0.021535 18:-0.244177 19:-0.0947074 20:-0.297985 21:-0.153454 22:-0.284712 23:-0.172833 24:-0.296861 25:-0.179996 26:-0.307226 27:-0.19009 28:-0.342642 29:-0.262752 30:-0.363899 31:-0.361245 32:-0.409099 33:-0.454393 34:-0.674589 35:-0.974441 36:-0.891239 37:-0.747634 38:-0.39726 39:-0.778748 40:-0.814132 41:-0.773585 42:-0.844374 43:-0.839704 44:-0.87651 45:-0.875472 46:-0.835165 47:-0.921127 48:-0.943445 49:-0.962865 50:-0.915152 51:-0.955272 52:-0.918519 53:-0.928 54:-0.973244 55:-0.958333 56:-0.989899 57:-0.961783 58:-0.963636 59:-0.666667 60:-0.679609 61:-0.810165 
1 1:-0.979291 2:0.721631 3:-0.14481 4:0.547791 5:0.0877182 6:0.512071 7:0.228749 8:-0.972114 9:-0.993732 10:0.45486 11:-0.258985 12:-0.987636 13:-0.660497 14:-0.98692 15:-0.400882 16:-0.843701 17:-0.28966 18:-0.677518 19:-0.3026 20:-0.62147 21:-0.394617 22:-0.810902 23:-0.336196 24:-0.460829 25:-0.469964 26:-0.889607 27:-0.166484 28:-0.592777 29:-0.419563 30:-0.724984 31:-0.827947 32:-0.974925 33:-1 34:-1 35:-1 36:-1 37:-1 38:-1 39:-0.998544 40:-1 41:-1 42:-1 43:-0.997534 44:-0.997315 45:-0.984906 46:-0.978022 47:-0.971831 48:-0.989717 49:-0.973475 50:-0.969697 51:-0.974441 52:-0.962963 53:-0.976 54:-0.979933 55:-0.983333 56:-0.989899 57:-0.961783 58:-0.963636 59:-1 60:-0.524963 61:-0.185188 
1 1:-0.978371 2:-0.137286 3:-0.715296 4:0.070582 5:0.446185 6:-0.168274 7:0.780722 8:-0.713738 9:-0.994654 10:0.454845 11:-0.259189 12:-0.993386 13:-0.660498 14:-0.992697 15:-0.38887 16:-0.496689 17:-0.362261 18:-0.561113 19:-0.56149 20:-0.45582 21:-0.503649 22:-0.344328 23:-0.675188 24:-0.310166 25:-0.437134 26:-0.585333 27:-0.911034 28:-0.943256 29:-0.790293 30:-0.859837 31:-0.870867 32:-0.795535 33:-0.864319 34:-0.929788 35:-0.99361 36:-1 37:-0.993691 38:-0.990868 39:-0.998544 40:-0.995392 41:-0.992453 42:-0.985279 43:-0.977805 44:-0.986577 45:-0.969811 46:-0.967033 47:-1 48:-0.994859 49:-1 50:-1 51:-1 52:-1 53:-1 54:-1 55:-0.991667 56:-1 57:-0.987261 58:-0.927273 59:-1 60:-0.723737 61:-0.331373 
1 1:-0.970087 2:0.37085 3:-0.262145 4:0.396916 5:0.0826904 6:0.176443 7:0.230327 8:-0.9675 9:-0.989374 10:0.454873 11:-0.25891 12:-0.983732 13:-0.660662 14:-0.981523 15:-0.0607729 16:-0.567048 17:-0.133779 18:-0.675689 19:-0.182157 20:-0.707349 21:-0.178989 22:-0.572671 23:-0.292665 24:-0.776423 25:-0.460763 26:-0.761082 27:-0.13795 28:-0.453978 29:-0.226036 30:-0.476203 31:-0.794632 32:-0.796075 33:-0.771562 34:-0.773594 35:-0.98722 36:-0.993958 37:-1 38:-0.986301 39:-1 40:-0.99232 41:-0.992453 42:-0.989485 43:-0.982737 44:-0.983893 45:-0.981132 46:-0.950549 47:-0.983099 48:-0.984576 49:-0.97878 50:-0.987879 51:-0.98722 52:-0.977778 53:-0.984 54:-0.993311 55:-0.991667 56:-0.979798 57:-1 58:-0.963636 59:-1 60:-0.49674 61:-0.0926239 
1 1:-0.974229 2:0.651439 3:-0.585767 4:0.314496 5:0.0957237 6:0.622279 7:0.169073 8:-0.945702 9:-0.989188 10:0.454684 11:-0.259002 12:-0.983499 13:-0.660139 14:-0.982978 15:-0.484003 16:-0.707313 17:-0.355952 18:-0.675432 19:-0.447421 20:-0.454832 21:-0.0315809 22:-0.304987 23:0.0127635 24:-0.755215 25:-0.397303 26:-0.737993 27:-0.110824 28:-0.70045 29:0.0576901 30:-0.640355 31:-0.898185 32:-0.879765 33:-0.681473 34:-0.712266 35:-0.99361 36:-1 37:-0.993691 38:-0.995434 39:-1 40:-0.998464 41:-0.997484 42:-1 43:-0.997534 44:-0.994631 45:-1 46:-0.989011 47:-0.994366 48:-0.979434 49:-0.96817 50:-0.951515 51:-0.961661 52:-0.955556 53:-0.928 54:-0.979933 55:-0.975 56:-0.979798 57:-1 58:-0.963636 59:-0.888889 60:-0.497486 61:-0.298368 
1 1:-0.988495 2:0.721631 3:-0.212463 4:0.520057 5:0.104755 6:0.533689 7:0.244329 8:-0.977547 9:-0.998225 10:0.454877 11:-0.259097 12:-0.994495 13:-0.662489 14:-0.994733 15:-0.834045 16:-0.992379 17:-0.48747 18:-0.801681 19:-0.647792 20:-0.792236 21:-0.625902 22:-0.788891 23:-0.689607 24:-0.735371 25:-0.593097 26:-0.819106 27:-0.650481 28:-0.713514 29:-0.69801 30:-0.62024 31:-1 32:-1 33:-1 34:-1 35:-1 36:-0.993958 37:-0.996845 38:-0.995434 39:-0.998544 40:-0.996928 41:-0.997484 42:-0.991588 43:-0.995068 44:-0.994631 45:-0.977358 46:-0.983516 47:-0.994366 48:-1 49:-1 50:-0.993939 51:-1 52:-1 53:-1 54:-0.986622 55:-0.991667 56:-1 57:-1 58:-0.963636 59:-1 60:-0.664891 61:-0.169276 
1 1:-0.797975 2:-0.746799 3:-0.971416 4:-0.221003 5:0.228971 6:-0.707845 7:0.452854 8:-0.966873 9:-0.903931 10:0.45461 11:-0.258172 12:-0.867087 13:-0.662433 14:-0.849509 15:-0.231604 16:-0.607762 17:0.0355576 18:-0.149821 19:0.049008 20:0.0614039 21:0.0992586 22:-0.00618413 23:0.115082 24:0.00523561 25:0.0702901 26:-0.265092 27:0.0910399 28:-0.29871 29:-0.0188474 30:-0.625965 31:-0.706663 32:-0.620595 33:-0.705933 34:-0.636073 35:-0.98722 36:-1 37:-1 38:-0.990868 39:-0.992722 40:-0.990783 41:-0.969811 42:-0.922187 43:-0.834772 44:-0.734228 45:-0.739623 46:-0.824176 47:-0.932394 48:-0.943445 49:-0.94695 50:-0.933333 51:-0.942492 52:-0.888889 53:-0.936 54:-0.926421 55:-0.958333 56:-0.919192 57:-0.898089 58:-0.854545 59:-0.888889 60:-0.298405 61:-0.177305 
1 1:0.11965 2:-0.977567 3:-0.939234 4:-0.265145 5:0.210636 6:-0.985016 7:0.384619 8:-0.996479 9:-0.592855 10:0.44864 11:-0.247535 12:-0.381215 13:-0.66468 14:-0.288937 15:-0.0188254 16:-0.519682 17:0.245288 18:-0.53447 19:0.414933 20:-0.581013 21:0.441729 22:-0.38149 23:0.38283 24:-0.426649 25:0.326358 26:-0.412172 27:0.313554 28:-0.288052 29:0.46551 30:-0.408164 31:0.369483 32:-0.432173 33:0.257658 34:-0.473394 35:-0.71246 36:1 37:1 38:0.429224 39:-0.649199 40:-0.728111 41:-0.758491 42:-0.850683 43:-0.782984 44:-0.795973 45:-0.65283 46:-0.532967 47:-0.650704 48:-0.753213 49:-0.877984 50:-0.89697 51:-0.916933 52:-0.933333 53:-0.936 54:-0.966555 55:-0.991667 56:-0.989899 57:-0.974522 58:-1 59:-1 60:-0.587324 61:-0.837365 
1 1:-0.88127 2:-0.505522 3:-0.828451 4:-0.0688752 5:0.227571 6:-0.472698 7:0.418889 8:-0.971683 9:-0.940458 10:0.453873 11:-0.245796 12:-0.838781 13:-0.664819 14:-0.847003 15:-0.343347 16:0.192514 17:-0.547518 18:-0.0949234 19:-0.358327 20:-0.399178 21:0.0764554 22:-0.303866 23:0.0191591 24:-0.542043 25:0.189424 26:-0.48878 27:0.18196 28:-0.569214 29:0.218844 30:-0.682553 31:-0.257671 32:-0.42469 33:-0.618921 34:-0.555833 35:-0.968051 36:-0.975831 37:-0.990536 38:-0.990868 39:-0.997089 40:-0.990783 41:-0.962264 42:-0.936909 43:-0.913687 44:-0.90604 45:-0.913208 46:-0.972527 47:-0.949296 48:-0.958869 49:-0.973475 50:-0.939394 51:-0.955272 52:-0.948148 53:-0.936 54:-0.906355 55:-0.908333 56:-0.919192 57:-0.923567 58:-0.854545 59:-0.888889 60:-0.0896416 61:-0.0454263 
1 1:-0.977451 2:0.664347 3:-0.635003 4:0.28434 5:0.123766 6:0.660522 7:0.210757 8:-0.958729 9:-0.989979 10:0.45494 11:-0.259029 12:-0.986312 13:-0.660533 14:-0.986009 15:-0.465117 16:-0.370357 17:-0.44519 18:-0.443115 19:-0.46592 20:-0.884262 21:-0.417952 22:-0.913063 23:-0.265117 24:-0.328584 25:-0.124512 26:-0.549813 27:-0.0586225 28:-0.596808 29:-0.036458 30:-0.516935 31:-0.666871 32:-0.849703 33:-0.869247 34:-0.963064 35:-0.99361 36:-0.993958 37:-1 38:-0.995434 39:-1 40:-1 41:-0.997484 42:-0.997897 43:-0.995068 44:-0.983893 45:-0.996226 46:-0.994505 47:-0.988732 48:-0.994859 49:-0.984085 50:-0.957576 51:-0.942492 52:-0.962963 53:-0.976 54:-0.966555 55:-0.983333 56:-0.979798 57:-1 58:-1 59:-1 60:-0.545872 61:-0.331879 
1 1:-0.97607 2:0.655836 3:-0.512466 4:0.364069 5:0.190756 6:0.614002 7:0.354666 8:-0.987434 9:-0.985291 10:0.454593 11:-0.259531 12:-0.985937 13:-0.660722 14:-0.983202 15:-0.660139 16:-0.659638 17:0.469011 18:-0.667707 19:-0.410836 20:-0.60964 21:0.438289 22:-0.708276 23:0.144146 24:-0.729257 25:-1 26:-1 27:0.20165 28:-0.711518 29:0.139958 30:-0.484896 31:0.0332508 32:-0.489312 33:-0.172771 34:-0.854598 35:-1 36:-1 37:-0.996845 38:-0.995434 39:-1 40:-1 41:-0.994969 42:-0.995794 43:-0.997534 44:-0.994631 45:-0.984906 46:-0.978022 47:-0.949296 48:-0.969152 49:-0.984085 50:-0.987879 51:-0.968051 52:-0.962963 53:-0.992 54:-0.979933 55:-0.983333 56:-0.979798 57:-0.974522 58:-1 59:-1 60:-0.440924 61:-0.218784 
1 1:-0.980672 2:0.668133 3:-0.599366 4:0.308594 5:0.134658 6:0.642704 7:0.240973 8:-0.972427 9:-0.99296 10:0.457208 11:-0.241129 12:-0.989935 13:-0.660447 14:-0.989419 15:-0.314505 16:-0.683107 17:-0.424606 18:-0.727517 19:-0.57394 20:-0.450405 21:-0.236622 22:-0.558531 23:-0.440876 24:-0.888756 25:-0.0742165 26:-0.673635 27:-0.1092 28:-0.515373 29:-0.342849 30:-0.729067 31:-0.651572 32:-0.867463 33:-1 34:-1 35:-1 36:-1 37:-1 38:-1 39:-1 40:-1 41:-1 42:-0.995794 43:-0.995068 44:-0.997315 45:-1 46:-1 47:-0.988732 48:-0.979434 49:-0.98939 50:-0.975758 51:-0.980831 52:-0.977778 53:-0.944 54:-0.973244 55:-0.966667 56:-0.979798 57:-0.961783 58:-0.854545 59:-1 60:-0.591365 61:-0.298903 
1 1:-0.982052 2:0.831145 3:-0.19647 4:0.560427 5:0.114691 6:0.658216 7:0.254136 8:-0.974957 9:-0.992817 10:0.454859 11:-0.25963 12:-0.989222 13:-0.660451 14:-0.9887 15:-0.200934 16:-0.670621 17:-0.315456 18:-0.512169 19:-0.211214 20:-0.654584 21:-0.599798 22:-0.800223 23:-0.582494 24:-0.43837 25:0.00728246 26:-0.741218 27:-0.201842 28:-0.650284 29:-0.370341 30:-0.457106 31:-0.930569 32:-0.829261 33:-1 34:-1 35:-1 36:-1 37:-1 38:-1 39:-1 40:-1 41:-0.997484 42:-1 43:-1 44:-0.994631 45:-0.977358 46:-0.972527 47:-0.983099 48:-0.984576 49:-0.96817 50:-0.975758 51:-0.974441 52:-0.992593 53:-0.992 54:-0.986622 55:-0.966667 56:-0.989899 57:-1 58:-0.963636 59:-1 60:-0.586132 61:-0.24171 
1 1:-0.916705 2:-0.331014 3:-0.566528 4:0.0861911 5:0.264644 6:-0.398688 7:0.449501 8:-0.97948 9:-0.971823 10:0.455808 11:-0.255345 12:-0.897646 13:-0.658971 14:-0.89954 15:-0.447012 16:-0.641579 17:-0.247742 18:-0.482555 19:-0.26238 20:-0.632273 21:-0.29897 22:-0.546672 23:-0.448997 24:-0.633056 25:-0.325207 26:-0.508002 27:-0.0357673 28:0.00693864 29:0.0481397 30:-0.452016 31:-0.356275 32:-0.627094 33:-0.808306 34:-0.824403 35:-0.99361 36:-1 37:-1 38:-0.995434 39:-0.995633 40:-1 41:-0.997484 42:-0.987382 43:-0.98767 44:-0.983893 45:-0.977358 46:-0.906593 47:-0.943662 48:-0.881748 49:-0.931034 50:-0.860606 51:-0.904153 52:-0.888889 53:-0.96 54:-0.926421 55:-0.925 56:-0.919192 57:-0.898089 58:-1 59:-1 60:-0.315197 61:0.209786 
1 1:-0.875288 2:-0.502408 3:-0.831457 4:-0.0778327 5:0.225258 6:-0.506398 7:0.414129 8:-0.991265 9:-0.959055 10:0.456259 11:-0.261893 12:-0.841773 13:-0.661703 14:-0.841977 15:-0.304946 16:-0.296268 17:-0.293026 18:-0.621608 19:-0.0542088 20:-0.637972 21:0.0214493 22:-0.61121 23:-0.121412 24:-0.780668 25:-0.125223 26:-0.746188 27:-0.0212466 28:-0.63261 29:0.120813 30:-0.506272 31:-0.205945 32:-0.658356 33:-0.748175 34:-0.820328 35:-0.99361 36:-0.981873 37:-0.990536 38:-0.986301 39:-0.998544 40:-1 41:-0.984906 42:-0.964248 43:-0.935882 44:-0.879195 45:-0.833962 46:-0.884615 47:-0.95493 48:-0.989717 49:-0.97878 50:-0.969697 51:-0.974441 52:-0.97037 53:-0.88 54:-0.899666 55:-0.908333 56:-0.909091 57:-0.770701 58:-0.781818 59:-0.444444 60:-0.0803296 61:0.000715843 
1 1:-0.931431 2:-0.212062 3:-0.689705 4:0.0690206 5:0.220922 6:-0.231315 7:0.404795 8:-0.988465 9:-0.974504 10:0.455465 11:-0.316807 12:-0.904604 13:-0.710436 14:-0.906517 15:-0.194322 16:-0.31528 17:-0.172951 18:-0.283849 19:-0.102494 20:-0.744263 21:-0.142098 22:-0.451241 23:-0.202524 24:-0.480687 25:-0.345701 26:-0.650378 27:-0.148655 28:-0.654196 29:-0.161414 30:-0.587753 31:-0.748953 32:-0.571098 33:-0.620503 34:-0.709075 35:-1 36:-0.981873 37:-0.990536 38:-0.995434 39:-0.997089 40:-0.996928 41:-0.992453 42:-0.962145 43:-0.960543 44:-0.959732 45:-0.958491 46:-0.961538 47:-0.971831 48:-0.994859 49:-0.984085 50:-0.981818 51:-0.98722 52:-0.903704 53:-0.96 54:-0.946488 55:-0.933333 56:-0.929293 57:-0.88535 58:-0.781818 59:-0.666667 60:-0.0119922 61:-0.00343115 
1 1:-0.581224 2:-0.867903 3:-0.852895 4:-0.198301 5:0.211991 6:-0.898221 7:0.387057 8:-0.990337 9:-0.812241 10:0.453607 11:-0.15592 12:-0.573695 13:-0.288291 14:-0.555798 15:-0.415986 16:-0.108341 17:-0.047166 18:-0.425081 19:-0.0620735 20:-0.314942 21:0.198006 22:-0.211323 23:0.404609 24:-0.380477 25:0.208858 26:-0.468201 27:0.156484 28:-0.230608 29:0.153808 30:-0.400909 31:-0.341744 32:-0.604697 33:-0.60259 34:-0.475496 35:-0.98722 36:-0.993958 37:-0.9653 38:-0.981735 39:-0.979622 40:-0.961598 41:-0.861635 42:-0.793901 43:-0.583231 44:-0.69396 45:-0.728302 46:-0.868132 47:-0.88169 48:-0.881748 49:-0.856764 50:-0.769697 51:-0.72524 52:-0.725926 53:-0.656 54:-0.799331 55:-0.775 56:-0.868687 57:-0.821656 58:-0.745455 59:-0.666667 60:-0.434257 61:-0.328467 
1 1:-0.136677 2:-0.995256 3:-0.995066 4:-0.280272 5:0.216045 6:-0.985417 7:0.396388 8:-0.978526 9:-0.823314 10:0.451693 11:-0.258076 12:-0.870638 13:-0.654103 14:-0.83634 15:-0.877571 16:-0.734859 17:-0.311837 18:-0.467004 19:-0.282338 20:-0.175214 21:-0.226824 22:-0.130637 23:-0.249695 24:-0.101897 25:-0.419275 26:-0.230281 27:-0.400552 28:-0.0598995 29:-0.318058 30:0.172022 31:-0.434646 32:-0.00108507 33:-0.948609 34:-0.543858 35:-0.968051 36:-0.957704 37:-0.92429 38:-0.917808 39:-0.917031 40:-0.895545 41:-0.672956 42:-0.774974 43:-0.694205 44:-0.653691 45:-0.509434 46:-0.291209 47:-0.397183 48:-0.218509 49:-0.374005 50:-0.0909091 51:-0.309904 52:-0.155556 53:-0.352 54:-0.625418 55:-0.675 56:-0.838384 57:-0.936306 58:-0.890909 59:-0.555556 60:-0.889744 61:-0.877163 
1 1:-0.0234699 2:-0.980518 3:-0.933602 4:-0.26707 5:0.226734 6:-0.988868 7:0.390835 8:-0.983297 9:-0.55904 10:0.391832 11:-0.26067 12:-0.684838 13:-0.630009 14:-0.587098 15:-0.131215 16:-0.0165054 17:0.119411 18:0.0456704 19:0.289885 20:0.0855201 21:0.0369267 22:0.139713 23:0.0327924 24:0.115503 25:-0.145624 26:0.0343639 27:-0.312089 28:0.165937 29:0.348801 30:0.130903 31:-0.0736785 32:-0.0176165 33:-0.21459 34:-0.19428 35:-0.71246 36:0.353474 37:0.498423 38:1 39:-0.58952 40:-0.717358 41:-0.594969 42:-0.783386 43:-0.866831 44:-0.873826 45:-0.864151 46:-0.906593 47:-0.904225 48:-0.928021 49:-0.95756 50:-0.975758 51:-0.968051 52:-0.992593 53:-0.984 54:-0.979933 55:-0.983333 56:-0.959596 57:-0.987261 58:-1 59:-1 60:-0.841075 61:-0.954695 
1 1:-0.175334 2:-0.993022 3:-0.96745 4:-0.27722 5:0.210891 6:-0.994764 7:0.384376 8:-0.987425 9:-0.728401 10:0.46518 11:-0.260926 12:-0.838476 13:-0.654394 14:-0.813054 15:0.107111 16:-0.73037 17:0.186356 18:0.174103 19:0.389485 20:0.114545 21:0.183331 22:0.215264 23:0.370037 24:-0.347338 25:-0.284202 26:-0.365085 27:-0.291204 28:-0.410541 29:-0.493298 30:-0.541829 31:-0.517779 32:-0.635939 33:-0.441081 34:-0.59646 35:-0.763578 36:0.202417 37:0.141956 38:0.753425 39:-0.6623 40:-0.827957 41:-0.851572 42:-0.882229 43:-0.879162 44:-0.873826 45:-0.849057 46:-0.857143 47:-0.825352 48:-0.876607 49:-0.877984 50:-0.89697 51:-0.846645 52:-0.881481 53:-0.856 54:-0.913043 55:-0.9 56:-0.909091 57:-0.961783 58:-0.890909 59:-0.888889 60:-0.61768 61:-0.880501 
1 1:-0.19052 2:-0.992381 3:-0.96833 4:-0.277425 5:0.211303 6:-0.994853 7:0.384558 8:-0.986536 9:-0.737329 10:0.788134 11:-0.964794 12:-0.839815 13:-0.667518 14:-0.820741 15:0.0655026 16:0.159314 17:0.205329 18:0.187176 19:0.231222 20:0.100136 21:0.224759 22:-0.0130893 23:0.112621 24:-0.398198 25:-0.0883373 26:-0.547527 27:-0.338936 28:-0.35699 29:-0.585731 30:-0.501365 31:-0.48764 32:-0.6358 33:-0.415593 34:-0.568996 35:-0.763578 36:0.0694864 37:0.205047 38:0.716895 39:-0.672489 40:-0.843318 41:-0.874214 42:-0.863302 43:-0.876695 44:-0.871141 45:-0.856604 46:-0.851648 47:-0.876056 48:-0.892031 49:-0.862069 50:-0.775758 51:-0.878594 52:-0.881481 53:-0.92 54:-0.906355 55:-0.916667 56:-0.929293 57:-0.974522 58:-0.927273 59:-0.888889 60:-0.61108 61:-0.872013 
1 1:-0.192361 2:-0.993567 3:-0.96833 4:-0.277474 5:0.210744 6:-0.99491 7:0.384318 8:-0.986687 9:-0.739063 10:0.453405 11:-0.25765 12:-0.839203 13:-0.654397 14:-0.821066 15:-0.140969 16:-0.659502 17:0.179307 18:0.238454 19:0.303699 20:0.110825 21:0.356163 22:0.162849 23:0.148282 24:-0.410085 25:-0.143769 26:-0.446915 27:-0.476631 28:-0.527548 29:-0.492684 30:-0.333632 31:-0.480183 32:-0.522372 33:-0.352279 34:-0.5911 35:-0.456869 36:0.583082 37:0.334385 38:0.392694 39:-0.74818 40:-0.861751 41:-0.856604 42:-0.905363 43:-0.881628 44:-0.924832 45:-0.89434 46:-0.873626 47:-0.830986 48:-0.866324 49:-0.899204 50:-0.884848 51:-0.814696 52:-0.881481 53:-0.864 54:-0.906355 55:-0.95 56:-0.939394 57:-0.872611 58:-0.963636 59:-1 60:-0.594658 61:-0.871956 
1 1:-0.1896 2:-0.993675 3:-0.968025 4:-0.277235 5:0.210704 6:-0.994688 7:0.384326 8:-0.98589 9:-0.733784 10:0.452517 11:-0.265642 12:-0.834361 13:-0.655969 14:-0.819232 15:0.0422146 16:0.1089 17:0.243442 18:0.152027 19:0.29326 20:0.218447 21:0.196614 22:0.173364 23:0.0323252 24:-0.354843 25:-0.165104 26:-0.488786 27:-0.517381 28:-0.442988 29:-0.306716 30:-0.40525 31:-0.230131 32:-0.596411 33:-0.487143 34:-0.567409 35:-0.821086 36:0.0332326 37:0.29653 38:0.671233 39:-0.653566 40:-0.824885 41:-0.841509 42:-0.930599 43:-0.896424 44:-0.922148 45:-0.886792 46:-0.785714 47:-0.876056 48:-0.866324 49:-0.867374 50:-0.824242 51:-0.865815 52:-0.822222 53:-0.872 54:-0.93311 55:-0.883333 56:-0.888889 57:-0.974522 58:-1 59:-0.777778 60:-0.584358 61:-0.869935 
1 1:-0.187759 2:-0.992884 3:-0.9681 4:-0.277311 5:0.210586 6:-0.994761 7:0.384269 8:-0.985735 9:-0.732248 10:0.458554 11:-0.278239 12:-0.83088 13:-0.653494 14:-0.816634 15:-0.0948594 16:-0.756807 17:0.323791 18:0.225155 19:0.225812 20:0.11996 21:0.311846 22:0.188549 23:0.11106 24:-0.462497 25:-0.132904 26:-0.423745 27:-0.482499 28:-0.313212 29:-0.515921 30:-0.554154 31:-0.445217 32:-0.591162 33:-0.404176 34:-0.60377 35:-0.859425 36:0.232628 37:0.29653 38:0.611872 39:-0.652111 40:-0.847926 41:-0.836478 42:-0.899054 43:-0.911221 44:-0.924832 45:-0.89434 46:-0.813187 47:-0.83662 48:-0.8509 49:-0.862069 50:-0.830303 51:-0.878594 52:-0.807407 53:-0.872 54:-0.906355 55:-0.941667 56:-0.939394 57:-0.974522 58:-0.963636 59:-1 60:-0.587546 61:-0.867593 
1 1:-0.187299 2:-0.994647 3:-0.967755 4:-0.277249 5:0.211412 6:-0.994752 7:0.384605 8:-0.984409 9:-0.729547 10:0.465121 11:-0.266523 12:-0.824283 13:-0.658739 14:-0.815281 15:0.146277 16:0.220314 17:0.356547 18:0.154601 19:0.198206 20:0.109396 21:0.387636 22:-0.00892712 23:0.165013 24:-0.437273 25:-0.207295 26:-0.466215 27:-0.291713 28:-0.450418 29:-0.394473 30:-0.505246 31:-0.381235 32:-0.611657 33:-0.348696 34:-0.592432 35:-0.789137 36:0.329305 37:0.381703 38:0.561644 39:-0.733624 40:-0.867896 41:-0.844025 42:-0.886435 43:-0.866831 44:-0.887248 45:-0.867925 46:-0.840659 47:-0.825352 48:-0.8509 49:-0.888594 50:-0.860606 51:-0.840256 52:-0.859259 53:-0.888 54:-0.919732 55:-0.95 56:-0.919192 57:-0.961783 58:-0.963636 59:-0.888889 60:-0.590009 61:-0.866057 
1 1:-0.187299 2:-0.992967 3:-0.96794 4:-0.277256 5:0.210505 6:-0.99472 7:0.384235 8:-0.986811 9:-0.730336 10:0.454327 11:-0.250561 12:-0.838486 13:-0.675148 14:-0.816954 15:0.0107315 16:-0.779154 17:0.203109 18:0.237357 19:0.308522 20:0.13374 21:0.288555 22:0.173039 23:0.221164 24:-0.415447 25:-0.104614 26:-0.537612 27:-0.331675 28:-0.456442 29:-0.448399 30:-0.534491 31:-0.494082 32:-0.568846 33:-0.513097 34:-0.538053 35:-0.814696 36:0.244713 37:0.246057 38:0.794521 39:-0.678311 40:-0.840246 41:-0.813836 42:-0.905363 43:-0.911221 44:-0.90604 45:-0.898113 46:-0.846154 47:-0.864789 48:-0.902314 49:-0.835544 50:-0.90303 51:-0.884984 52:-0.822222 53:-0.904 54:-0.892977 55:-0.941667 56:-0.919192 57:-0.961783 58:-1 59:-1 60:-0.610735 61:-0.880836 
1 1:-0.92775 2:-0.232164 3:-0.553725 4:0.114332 5:0.262622 6:-0.324371 7:0.450065 8:-0.975965 9:-0.969607 10:0.455559 11:-0.259707 12:-0.905657 13:-0.660265 14:-0.907561 15:-0.244458 16:-0.129393 17:-0.197744 18:-0.331829 19:-0.333972 20:-0.523086 21:-0.178671 22:-0.516772 23:-0.177532 24:-0.645893 25:0.0110292 26:-0.628283 27:0.145612 28:-0.427169 29:0.0308555 30:-0.659745 31:-0.36466 32:-0.84988 33:-0.750314 34:-0.766949 35:-0.99361 36:-0.993958 37:-0.993691 38:-1 39:-0.992722 40:-0.996928 41:-0.979874 42:-0.985279 43:-0.921085 44:-0.951678 45:-0.943396 46:-0.978022 47:-0.983099 48:-1 49:-0.984085 50:-0.981818 51:-0.98722 52:-0.955556 53:-0.92 54:-0.939799 55:-0.925 56:-0.919192 57:-0.898089 58:-0.781818 59:-1 60:0.0317491 61:0.0425359 
1 1:-0.468477 2:-0.903584 3:-0.876246 4:-0.216466 5:0.222149 6:-0.922631 7:0.394815 8:-0.986016 9:-0.790823 10:0.452726 11:-0.247558 12:-0.367097 13:-0.669926 14:-0.369871 15:-0.225267 16:-0.000742857 17:-0.315634 18:-0.11371 19:-0.0810923 20:-0.129401 21:0.217954 22:-0.253271 23:-0.0258026 24:-0.441035 25:-0.0286887 26:-0.523322 27:0.283396 28:-0.392479 29:0.267082 30:-0.291831 31:-0.0484069 32:-0.546234 33:-0.505361 34:-0.538513 35:-1 36:-0.951662 37:-0.990536 38:-0.926941 39:-0.960699 40:-0.870968 41:-0.569811 42:-0.667718 43:-0.74106 44:-0.838926 45:-0.833962 46:-0.835165 47:-0.819718 48:-0.789203 49:-0.782493 50:-0.484848 51:-0.507987 52:-0.585185 53:-0.632 54:-0.799331 55:-0.825 56:-0.848485 57:-0.910828 58:-0.963636 59:-0.777778 60:-0.373366 61:-0.402287 
-1 1:-0.616199 2:-0.95011 3:-0.925799 4:-0.32897 5:0.272992 6:-0.959144 7:0.334376 8:-0.919135 9:-0.817312 10:0.454926 11:-0.256355 12:-0.842127 13:-0.654853 14:-0.774754 15:0.247235 16:-0.53602 17:0.249494 18:-0.559795 19:0.222465 20:-0.563354 21:0.25596 22:-0.540059 23:0.189594 24:-0.565515 25:0.208765 26:-0.541995 27:0.259265 28:-0.497233 29:0.328096 30:-0.517541 31:0.225351 32:-0.563178 33:-0.254581 34:-0.677185 35:-1 36:-1 37:-1 38:-0.990868 39:-1 40:-0.998464 41:-1 42:-0.997897 43:-0.997534 44:-1 45:-0.992453 46:-0.989011 47:-0.95493 48:-0.922879 49:-0.867374 50:-0.636364 51:-0.450479 52:0.118519 53:0.296 54:-0.103679 55:-0.35 56:-0.40404 57:-0.643312 58:-0.309091 59:-0.444444 60:-0.802063 61:0.129773 
-1 1:-0.647032 2:-0.969473 3:-0.922129 4:-0.25758 5:0.112763 6:-0.979222 7:0.33479 8:-0.827943 9:-0.842813 10:0.457689 11:-0.264574 12:-0.858147 13:-0.656325 14:-0.845391 15:0.133601 16:-0.270686 17:0.307882 18:-0.221363 19:0.266626 20:-0.187535 21:-0.17516 22:-0.131784 23:-0.00857901 24:-0.13657 25:-0.414799 26:-0.366568 27:-0.428102 28:-0.339901 29:-0.458732 30:-0.413496 31:-0.58364 32:-0.541316 33:-0.651294 34:-0.641743 35:-0.4377 36:-0.383686 37:-0.88959 38:-0.968037 39:-0.988355 40:-0.987711 41:-0.989937 42:-0.985279 43:-0.972873 44:-0.943624 45:-0.841509 46:-0.659341 47:-0.616901 48:-0.655527 49:-0.655172 50:-0.666667 51:-0.699681 52:-0.822222 53:-0.912 54:-0.939799 55:-0.908333 56:-0.959596 57:-0.859873 58:-0.890909 59:-0.777778 60:0.0400573 61:-0.336291 
-1 1:-0.59457 2:-0.973538 3:-0.961255 4:-0.315368 5:0.245219 6:-0.966146 7:0.347429 8:-0.947957 9:-0.89826 10:0.451644 11:-0.265564 12:-0.873563 13:-0.658123 14:-0.84288 15:-0.075116 16:-0.470768 17:0.0101156 18:-0.293361 19:-0.183956 20:-0.509723 21:-0.152901 22:-0.698362 23:-0.252607 24:-0.653724 25:-0.256386 26:-0.716126 27:-0.176366 28:-0.697513 29:-0.159246 30:-0.68677 31:-0.195083 32:-0.685061 33:-0.233707 34:-0.712989 35:-0.99361 36:-0.987915 37:-0.996845 38:-0.995434 39:-0.994178 40:-0.995392 41:-0.997484 42:-0.991588 43:-0.98767 44:-0.983893 45:-0.977358 46:-0.967033 47:-0.949296 48:-0.922879 49:-0.803714 50:-0.612121 51:-0.476038 52:0.125926 53:0.248 54:-0.0234114 55:-0.258333 56:-0.373737 57:-0.745223 58:-0.636364 59:-0.555556 60:-0.666036 61:0.109083 
-1 1:-0.655315 2:-0.966145 3:-0.922822 4:-0.257756 5:0.113371 6:-0.979291 7:0.334947 8:-0.829337 9:-0.853494 10:0.454412 11:-0.256101 12:-0.861285 13:-0.656769 14:-0.849979 15:-0.0339139 16:-0.294438 17:0.260507 18:-0.205634 19:0.186239 20:-0.183956 21:-0.109381 22:-0.204727 23:-0.0800226 24:-0.117932 25:-0.478239 26:-0.403392 27:-0.450578 28:-0.372624 29:-0.50382 30:-0.456042 31:-0.626454 32:-0.599833 33:-0.738283 34:-0.681468 35:-0.41853 36:-0.462236 37:-0.88959 38:-0.968037 39:-0.982533 40:-0.989247 41:-0.989937 42:-0.989485 43:-0.985203 44:-0.927517 45:-0.837736 46:-0.71978 47:-0.6 48:-0.706941 49:-0.655172 50:-0.642424 51:-0.750799 52:-0.762963 53:-0.904 54:-0.919732 55:-0.933333 56:-0.929293 57:-0.898089 58:-0.854545 59:-0.666667 60:0.0353723 61:-0.336931 
-1 1:-0.583525 2:-0.974624 3:-0.960703 4:-0.315623 5:0.244715 6:-0.965948 7:0.348032 8:-0.949834 9:-0.885873 10:0.453355 11:-0.260413 12:-0.868978 13:-0.654717 14:-0.833878 15:-0.0479338 16:-0.585077 17:-0.0314748 18:-0.251327 19:-0.160605 20:-0.326661 21:-0.15475 22:-0.682658 23:-0.188721 24:-0.726097 25:-0.235613 26:-0.689802 27:-0.161364 28:-0.627826 29:-0.105637 30:-0.688654 31:-0.184112 32:-0.691926 33:-0.237123 34:-0.684383 35:-0.98722 36:-0.993958 37:-0.993691 38:-0.972603 39:-0.998544 40:-0.99232 41:-0.997484 42:-0.985279 43:-0.985203 44:-0.986577 45:-0.973585 46:-0.978022 47:-0.915493 48:-0.866324 49:-0.761273 50:-0.557576 51:-0.405751 52:0.185185 53:0.2 54:-0.117057 55:-0.258333 56:-0.626263 57:-0.643312 58:-0.6 59:-0.555556 60:-0.678695 61:0.107962 
-1 1:-0.59549 2:-0.971851 3:-0.961145 4:-0.315434 5:0.244553 6:-0.966068 7:0.348047 8:-0.950038 9:-0.896318 10:0.455122 11:-0.254712 12:-0.874137 13:-0.661049 14:-0.842143 15:-0.0315744 16:-0.456905 17:-0.0702863 18:-0.39095 19:-0.151834 20:-0.357985 21:-0.166318 22:-0.717437 23:-0.224986 24:-0.702259 25:-0.277604 26:-0.670566 27:-0.166327 28:-0.683539 29:-0.122683 30:-0.655772 31:-0.179368 32:-0.720442 33:-0.235896 34:-0.69275 35:-0.99361 36:-1 37:-0.993691 38:-0.986301 39:-0.997089 40:-0.995392 41:-0.994969 42:-0.993691 43:-0.977805 44:-0.986577 45:-0.984906 46:-0.967033 47:-0.949296 48:-0.938303 49:-0.862069 50:-0.769697 51:-0.527157 52:0.0222222 53:0.12 54:0.0568562 55:0.075 56:-0.373737 57:-0.503185 58:-0.454545 59:-0.555556 60:-0.666554 61:0.10404 
-1 1:-0.658076 2:-0.967111 3:-0.922966 4:-0.25774 5:0.112652 6:-0.979227 7:0.334485 8:-0.826906 9:-0.851525 10:0.450673 11:-0.264153 12:-0.865028 13:-0.667412 14:-0.851783 15:0.0273614 16:-0.342957 17:0.291393 18:-0.192769 19:0.212455 20:-0.190674 21:-0.134189 22:-0.099217 23:0.0312228 24:-0.19599 25:-0.467037 26:-0.380466 27:-0.48756 28:-0.367696 29:-0.506199 30:-0.502471 31:-0.600192 32:-0.542327 33:-0.701146 34:-0.662296 35:-0.41853 36:-0.407855 37:-0.914826 38:-0.96347 39:-0.988355 40:-0.990783 41:-0.987421 42:-0.989485 43:-0.972873 44:-0.948993 45:-0.860377 46:-0.725275 47:-0.650704 48:-0.717224 49:-0.623342 50:-0.624242 51:-0.71885 52:-0.748148 53:-0.896 54:-0.926421 55:-0.925 56:-0.929293 57:-0.961783 58:-0.709091 59:-0.555556 60:0.0445781 61:-0.33389 
-1 1:-0.651173 2:-0.965559 3:-0.922293 4:-0.257584 5:0.111869 6:-0.979185 7:0.334249 8:-0.825248 9:-0.845762 10:0.451067 11:-0.26891 12:-0.861708 13:-0.661544 14:-0.847985 15:-0.0527493 16:-0.380114 17:0.260373 18:-0.241771 19:0.20814 20:-0.188407 21:-0.0974723 22:-0.172612 23:0.0731024 24:-0.116011 25:-0.450991 26:-0.377846 27:-0.432405 28:-0.339901 29:-0.470404 30:-0.452168 31:-0.648772 32:-0.623821 33:-0.701181 34:-0.59101 35:-0.412141 36:-0.432024 37:-0.902208 38:-0.945205 39:-0.981077 40:-0.995392 41:-0.98239 42:-0.991588 43:-0.98767 44:-0.914094 45:-0.871698 46:-0.653846 47:-0.605634 48:-0.624679 49:-0.697613 50:-0.654545 51:-0.731629 52:-0.859259 53:-0.864 54:-0.93311 55:-0.941667 56:-0.888889 57:-0.949045 58:-0.781818 59:-1 60:0.0433083 61:-0.335475 
-1 1:-0.659457 2:-0.968348 3:-0.922736 4:-0.25778 5:0.112092 6:-0.97935 7:0.334395 8:-0.824829 9:-0.852788 10:0.45159 11:-0.265166 12:-0.863782 13:-0.660263 14:-0.852518 15:-0.0764133 16:-0.292268 17:0.252418 18:-0.236302 19:0.183927 20:-0.19826 21:-0.0879202 22:-0.294685 23:-0.0204296 24:-0.109251 25:-0.441166 26:-0.428749 27:-0.444037 28:-0.332008 29:-0.480075 30:-0.42508 31:-0.604134 32:-0.540118 33:-0.665215 34:-0.636008 35:-0.507987 36:-0.353474 37:-0.905363 38:-0.940639 39:-0.989811 40:-0.99232 41:-0.987421 42:-0.985279 43:-0.985203 44:-0.965101 45:-0.890566 46:-0.675824 47:-0.684507 48:-0.655527 49:-0.692308 50:-0.70303 51:-0.667732 52:-0.711111 53:-0.832 54:-0.93311 55:-0.916667 56:-0.939394 57:-0.872611 58:-0.818182 59:-0.555556 60:0.0440964 61:-0.337491 
-1 1:-0.59595 2:-0.971671 3:-0.961218 4:-0.315393 5:0.244494 6:-0.966112 7:0.348086 8:-0.94998 9:-0.899113 10:0.45427 11:-0.257416 12:-0.873845 13:-0.6623 14:-0.843414 15:-0.015006 16:-0.539343 17:-0.0306547 18:-0.340271 19:-0.195842 20:-0.560845 21:-0.165527 22:-0.706662 23:-0.196547 24:-0.640274 25:-0.241219 26:-0.665448 27:-0.185338 28:-0.699674 29:-0.170173 30:-0.721993 31:-0.181146 32:-0.650513 33:-0.262044 34:-0.716343 35:-0.99361 36:-1 37:-0.996845 38:-0.995434 39:-0.997089 40:-0.998464 41:-0.987421 42:-0.991588 43:-0.992602 44:-0.986577 45:-0.977358 46:-0.967033 47:-0.966197 48:-0.938303 49:-0.846154 50:-0.733333 51:-0.533546 52:0.0148148 53:0.28 54:0.00334448 55:0.00833333 56:-0.313131 57:-0.605096 58:-0.454545 59:-0.777778 60:-0.681834 61:0.110884 
-1 1:-0.593189 2:-0.971128 3:-0.961114 4:-0.315439 5:0.244721 6:-0.966088 7:0.347918 8:-0.949729 9:-0.897137 10:0.457168 11:-0.253071 12:-0.873925 13:-0.663817 14:-0.842048 15:-0.104541 16:-0.545546 17:-0.0331523 18:-0.395362 19:-0.177557 20:-0.549895 21:-0.186091 22:-0.645637 23:-0.22993 24:-0.672686 25:-0.260797 26:-0.72845 27:-0.172265 28:-0.707115 29:-0.13616 30:-0.674424 31:-0.232687 32:-0.720395 33:-0.226967 34:-0.73478 35:-0.99361 36:-0.993958 37:-0.996845 38:-0.995434 39:-0.994178 40:-0.995392 41:-0.994969 42:-0.993691 43:-0.985203 44:-0.986577 45:-0.984906 46:-0.961538 47:-0.938028 48:-0.928021 49:-0.872679 50:-0.721212 51:-0.405751 52:-0.0222222 53:0.304 54:-0.0167224 55:-0.05 56:-0.424242 57:-0.617834 58:-0.527273 59:-0.222222 60:-0.668418 61:0.109883 
-1 1:-0.650253 2:-0.969566 3:-0.922205 4:-0.25779 5:0.115 6:-0.979478 7:0.336202 8:-0.835488 9:-0.838247 10:0.455943 11:-0.26616 12:-0.859237 13:-0.662264 14:-0.843151 15:0.0411679 16:-0.40172 17:0.241157 18:0.228065 19:0.221869 20:-0.217243 21:-0.0158683 22:0.166119 23:-0.0842153 24:-0.103955 25:-0.470677 26:-0.205521 27:-0.414226 28:-0.0963626 29:-0.288069 30:-0.289711 31:-0.293457 32:-0.225614 33:-0.622791 34:-0.595992 35:-0.444089 36:-0.444109 37:-0.883281 38:-0.954338 39:-0.9869 40:-0.986175 41:-0.984906 42:-0.989485 43:-0.967941 44:-0.954362 45:-0.849057 46:-0.686813 47:-0.628169 48:-0.701799 49:-0.676393 50:-0.69697 51:-0.674121 52:-0.748148 53:-0.848 54:-0.93311 55:-0.891667 56:-0.949495 57:-0.910828 58:-0.854545 59:-0.444444 60:0.034606 61:-0.337291 
-1 1:0.559595 2:-0.985274 3:-0.936242 4:-0.271825 5:0.189287 6:-0.992781 7:0.376595 8:-0.938137 9:0.617213 10:0.471136 11:-0.284858 12:0.916123 13:-0.809521 14:0.854925 15:0.538734 16:0.752632 17:0.757304 18:0.769527 19:0.826972 20:0.705145 21:0.850599 22:0.91544 23:0.631001 24:0.754053 25:0.716738 26:0.566445 27:0.775854 28:0.864375 29:0.690013 30:0.568674 31:0.163053 32:0.0594051 33:0.621127 34:-0.250562 35:-0.0670927 36:0.154079 37:-0.747634 38:-0.821918 39:-0.96361 40:-0.9447 41:-0.92956 42:-0.922187 43:-0.82984 44:-0.707383 45:-0.426415 46:0.153846 47:0.476056 48:0.439589 49:0.490716 50:1 51:0.961661 52:1 53:0.576 54:0.0501672 55:-0.125 56:-0.555556 57:-0.783439 58:-0.381818 59:-0.444444 60:-0.104497 61:-0.101743 
-1 1:-0.271974 2:-0.999813 3:-0.987563 4:-0.282704 5:0.198865 6:-0.997309 7:0.378835 8:-0.979677 9:-0.709133 10:0.445287 11:-0.256572 12:-0.818041 13:-0.659295 14:-0.790544 15:0.435804 16:-0.49278 17:0.793756 18:-0.18475 19:0.811416 20:-0.0825208 21:0.663156 22:-0.039844 23:0.552881 24:0.00730281 25:0.463587 26:0.00249691 27:0.207262 28:0.138235 29:0.713851 30:0.153619 31:-0.247417 32:0.00595247 33:-0.329249 34:-0.0965662 35:-0.616613 36:-0.504532 37:-0.794953 38:-0.694064 39:-0.896652 40:-0.886329 41:-0.828931 42:-0.82755 43:-0.763255 44:-0.731544 45:-0.720755 46:-0.620879 47:-0.633803 48:-0.552699 49:-0.527851 50:-0.466667 51:-0.42492 52:-0.311111 53:-0.552 54:-0.785953 55:-0.766667 56:-0.777778 57:-0.821656 58:-0.709091 59:-0.222222 60:0.343028 61:0.0464378 
-0.2468773836704742 1:-0.607915 2:-0.950684 3:-0.926261 4:-0.32884 5:0.273706 6:-0.959144 7:0.333729 8:-0.916816 9:-0.804308 10:0.454154 11:-0.257324 12:-0.84066 13:-0.6626 14:-0.767893 15:0.284844 16:-0.541463 17:0.293048 18:-0.555424 19:0.256226 20:-0.564945 21:0.286379 22:-0.535603 23:0.193045 24:-0.594879 25:0.236734 26:-0.549246 27:0.319786 28:-0.468669 29:0.405937 30:-0.511967 31:0.283875 32:-0.507534 33:-0.444978 34:-0.742383 35:-1 36:-0.993958 37:-1 38:-0.990868 39:-1 40:-0.998464 41:-1 42:-0.993691 43:-1 44:-0.991946 45:-0.984906 46:-0.950549 47:-0.915493 48:-0.876607 49:-0.755968 50:-0.363636 51:-0.169329 52:0.185185 53:-0.072 54:-0.404682 55:-0.391667 56:-0.545455 57:-0.783439 58:-0.6 59:-0.666667 60:-0.80376 61:0.127312 
-1 1:-0.588127 2:-0.97131 3:-0.960939 4:-0.315508 5:0.244696 6:-0.966051 7:0.347996 8:-0.949701 9:-0.892452 10:0.4548 11:-0.253191 12:-0.870942 13:-0.664143 14:-0.838182 15:-0.0823458 16:-0.452682 17:-0.0124769 18:-0.359157 19:-0.167986 20:-0.492878 21:-0.152467 22:-0.604496 23:-0.22735 24:-0.672701 25:-0.235613 26:-0.730658 27:-0.201097 28:-0.685461 29:-0.120125 30:-0.676694 31:-0.231149 32:-0.716271 33:-0.228302 34:-0.68117 35:-1 36:-0.987915 37:-0.993691 38:-1 39:-0.997089 40:-0.99232 41:-0.992453 42:-0.993691 43:-0.990136 44:-0.981208 45:-0.984906 46:-0.950549 47:-0.949296 48:-0.943445 49:-0.851459 50:-0.606061 51:-0.373802 52:0.0444444 53:0.312 54:0.0234114 55:-0.2 56:-0.494949 57:-0.681529 58:-0.418182 59:-0.666667 60:-0.67554 61:0.110594 
-1 1:-0.979751 2:-0.537629 3:-0.365565 4:0.0430291 5:0.492532 6:-0.68147 7:0.580059 8:-0.810497 9:-0.993982 10:0.454998 11:-0.258891 12:-0.99106 13:-0.66035 14:-0.990882 15:-0.627713 16:-0.675355 17:-1 18:-1 19:-1 20:-1 21:-0.146621 22:-0.549581 23:0.0855042 24:-0.310698 25:-0.660067 26:-0.169656 27:-0.794018 28:-0.283771 29:-0.820641 30:-0.348212 31:-0.78897 32:-0.383677 33:-0.93592 34:-0.548583 35:-0.99361 36:-0.993958 37:-1 38:-0.990868 39:-0.992722 40:-0.99232 41:-0.992453 42:-0.989485 43:-0.982737 44:-0.994631 45:-0.973585 46:-0.956044 47:-0.988732 48:-0.994859 49:-1 50:-1 51:-1 52:-1 53:-1 54:-1 55:-1 56:-1 57:-1 58:-1 59:-1 60:-0.126643 61:-0.205583 
-1 1:-0.729406 2:-0.975861 3:-0.919568 4:-0.25846 5:0.122455 6:-0.981072 7:0.342332 8:-0.870767 9:-0.882003 10:0.4613 11:-0.245315 12:-0.90621 13:-0.659964 14:-0.880936 15:-0.127629 16:-0.681909 17:0.0546412 18:-0.426427 19:0.556701 20:-0.249147 21:0.356282 22:-0.240933 23:0.205022 24:-0.353684 25:0.0734534 26:-0.327259 27:-0.446101 28:-0.296671 29:-0.497607 30:-0.467414 31:-0.637271 32:-0.572491 33:-0.683079 34:-0.61199 35:-0.674121 36:-0.577039 37:-0.911672 38:-0.986301 39:-0.988355 40:-0.989247 41:-0.987421 42:-0.985279 43:-0.982737 44:-0.97047 45:-0.916981 46:-0.802198 47:-0.712676 48:-0.696658 49:-0.777188 50:-0.739394 51:-0.699681 52:-0.748148 53:-0.864 54:-0.906355 55:-0.916667 56:-0.909091 57:-0.910828 58:-0.890909 59:-0.777778 60:-0.0446 61:-0.330078 
-1 1:-0.7133 2:-0.977073 3:-0.920001 4:-0.258349 5:0.120914 6:-0.980811 7:0.341246 8:-0.864487 9:-0.866676 10:0.446874 11:-0.266796 12:-0.902192 13:-0.655133 14:-0.874144 15:-0.0347869 16:-0.600398 17:0.38302 18:-0.372778 19:0.335849 20:-0.358904 21:0.372925 22:-0.165449 23:0.198897 24:-0.30835 25:0.381065 26:-0.352806 27:-0.418485 28:-0.302164 29:-0.46108 30:-0.383826 31:-0.602044 32:-0.541316 33:-0.707825 34:-0.666773 35:-0.654952 36:-0.564955 37:-0.892744 38:-0.968037 39:-0.9869 40:-0.984639 41:-0.997484 42:-0.989485 43:-0.98767 44:-0.967785 45:-0.932075 46:-0.818681 47:-0.673239 48:-0.737789 49:-0.702918 50:-0.739394 51:-0.686901 52:-0.762963 53:-0.76 54:-0.87291 55:-0.941667 56:-0.919192 57:-0.923567 58:-0.818182 59:-0.555556 60:-0.0349257 61:-0.337346 
-1 1:-0.993097 2:-0.599739 3:-0.939726 4:-0.16296 5:0.232515 6:-0.527815 7:0.452949 8:-0.976884 9:-0.995638 10:0.454841 11:-0.259139 12:-0.99717 13:-0.660376 14:-0.996164 15:-0.920697 16:-0.773282 17:-1 18:-1 19:-1 20:-1 21:-1 22:-1 23:-1 24:-1 25:-1 26:-1 27:-0.320208 28:-0.819772 29:0.606038 30:-0.174656 31:-1 32:-1 33:-0.855914 34:-0.968672 35:-1 36:-0.993958 37:-1 38:-1 39:-1 40:-1 41:-0.994969 42:-0.997897 43:-0.997534 44:-0.997315 45:-1 46:-0.989011 47:-1 48:-0.989717 49:-0.984085 50:-0.975758 51:-1 52:-1 53:-1 54:-0.993311 55:-1 56:-0.989899 57:-0.987261 58:-1 59:-1 60:-0.433031 61:-0.401847 
-0.115387083897675 1:-0.592729 2:-0.972388 3:-0.961043 4:-0.315494 5:0.244942 6:-0.966023 7:0.347724 8:-0.948985 9:-0.895763 10:0.454474 11:-0.266866 12:-0.874706 13:-0.657498 14:-0.842953 15:-0.0621186 16:-0.570652 17:-0.0577082 18:-0.322358 19:-0.169965 20:-0.37989 21:-0.169163 22:-0.711351 23:-0.234164 24:-0.654388 25:-0.264788 26:-0.648961 27:-0.199027 28:-0.679571 29:-0.136861 30:-0.670677 31:-0.216763 32:-0.712726 33:-0.25391 34:-0.700274 35:-0.99361 36:-0.981873 37:-0.987382 38:-0.990868 39:-0.998544 40:-0.993856 41:-0.992453 42:-0.995794 43:-0.982737 44:-0.978523 45:-0.984906 46:-0.93956 47:-0.938028 48:-0.902314 49:-0.803714 50:-0.6 51:-0.246006 52:0.118519 53:0.112 54:-0.110368 55:-0.308333 56:-0.535354 57:-0.719745 58:-0.745455 59:-0.111111 60:-0.671449 61:0.110834 
-1 1:-0.983433 2:0.185591 3:-0.773762 4:0.0983725 5:0.433909 6:0.224462 7:0.898448 8:-0.668718 9:-0.992439 10:0.454829 11:-0.258832 12:-0.986852 13:-0.6602 14:-0.986158 15:-0.0219302 16:-0.684791 17:-0.112108 18:-0.415521 19:-0.251848 20:-0.631293 21:-0.0020945 22:-0.783395 23:0.0102286 24:-0.779562 25:-1 26:-1 27:-0.600933 28:-0.894486 29:-0.67153 30:-0.776594 31:-0.863537 32:-0.965223 33:-0.974532 34:-0.695556 35:-0.99361 36:-1 37:-0.990536 38:-1 39:-0.997089 40:-0.996928 41:-0.992453 42:-0.993691 43:-0.997534 44:-0.991946 45:-0.981132 46:-0.972527 47:-0.988732 48:-0.989717 49:-1 50:-0.993939 51:-1 52:-0.985185 53:-0.992 54:-0.993311 55:-0.991667 56:-1 57:-1 58:-0.963636 59:-0.777778 60:0.91162 61:0.600233 
-1 1:-0.45283 2:-0.972344 3:-0.875509 4:-0.308487 5:0.233075 6:-0.994667 7:0.376769 8:-0.975791 9:-0.792264 10:0.458057 11:-0.258995 12:-0.650572 13:-0.44723 14:-0.65578 15:0.188165 16:-0.229879 17:0.120152 18:-0.276232 19:0.110703 20:-0.197854 21:0.0933247 22:-0.155757 23:-0.342188 24:-0.1814 25:-0.285045 26:-0.185599 27:0.0558363 28:-0.0958618 29:0.0969749 30:-0.106749 31:0.15469 32:-0.176192 33:-0.149866 34:-0.152756 35:-0.335463 36:-0.570997 37:-0.876972 38:-0.835616 39:-0.967977 40:-0.963134 41:-0.924528 42:-0.945321 43:-0.921085 44:-0.887248 45:-0.811321 46:-0.549451 47:-0.312676 48:-0.233933 49:-0.225464 50:-0.30303 51:-0.623003 52:-0.785185 53:-0.968 54:-0.986622 55:-0.991667 56:-0.969697 57:-0.974522 58:-0.927273 59:-0.777778 60:0.521277 61:0.27041 
-1 1:-0.71514 2:-0.974322 3:-0.920991 4:-0.258535 5:0.119169 6:-0.980824 7:0.34015 8:-0.857087 9:-0.868344 10:0.457908 11:-0.258495 12:-0.902016 13:-0.665283 14:-0.875703 15:-0.225695 16:-0.543788 17:0.0701104 18:-0.469681 19:0.361781 20:-0.284624 21:0.502545 22:-0.176879 23:0.243613 24:-0.257407 25:0.223061 26:-0.406315 27:-0.475212 28:-0.431386 29:-0.558813 30:-0.543094 31:-0.591568 32:-0.590195 33:-0.757159 34:-0.65642 35:-0.71246 36:-0.456193 37:-0.895899 38:-0.958904 39:-0.991266 40:-0.987711 41:-0.98239 42:-0.989485 43:-0.990136 44:-0.962416 45:-0.932075 46:-0.769231 47:-0.661972 48:-0.742931 49:-0.745358 50:-0.739394 51:-0.674121 52:-0.762963 53:-0.888 54:-0.886288 55:-0.916667 56:-0.939394 57:-0.923567 58:-0.818182 59:-0.888889 60:-0.0271505 61:-0.355555 
-1 1:-0.593189 2:-0.970855 3:-0.961164 4:-0.31542 5:0.244999 6:-0.966098 7:0.347649 8:-0.948804 9:-0.897958 10:0.454222 11:-0.267947 12:-0.874013 13:-0.656824 14:-0.842833 15:-0.0705951 16:-0.483964 17:-0.0784847 18:-0.390578 19:-0.210269 20:-0.559649 21:-0.192508 22:-0.706832 23:-0.22659 24:-0.693085 25:-0.251406 26:-0.696517 27:-0.186984 28:-0.663882 29:-0.132474 30:-0.715467 31:-0.195847 32:-0.71564 33:-0.245012 34:-0.681369 35:-1 36:-1 37:-0.990536 38:-0.990868 39:-0.997089 40:-0.995392 41:-0.992453 42:-0.991588 43:-0.992602 44:-0.97047 45:-0.984906 46:-0.961538 47:-0.95493 48:-0.933162 49:-0.856764 50:-0.642424 51:-0.42492 52:-0.0444444 53:0.4 54:-0.0167224 55:-0.216667 56:-0.424242 57:-0.605096 58:-0.490909 59:-0.666667 60:-0.672249 61:0.108402 
-1 1:-0.97607 2:-0.487927 3:-0.74956 4:-0.0372991 5:0.507412 6:-0.538904 7:0.779352 8:-0.494071 9:-0.995536 10:0.455057 11:-0.25927 12:-0.993794 13:-0.660386 14:-0.99305 15:-0.780215 16:-0.577218 17:-0.703419 18:-0.527253 19:-0.603211 20:-0.403599 21:-0.699709 22:-0.434301 23:-0.707049 24:-0.811411 25:-0.788273 26:-0.775905 27:-0.717686 28:-0.546622 29:-1 30:-1 31:-1 32:-1 33:-0.7211 34:-0.851725 35:-0.980831 36:-0.975831 37:-0.996845 38:-0.990868 39:-1 40:-0.998464 41:-0.992453 42:-0.995794 43:-0.997534 44:-0.994631 45:-0.996226 46:-0.994505 47:-0.977465 48:-0.979434 49:-0.984085 50:-0.951515 51:-0.968051 52:-0.97037 53:-0.984 54:-0.979933 55:-1 56:-0.979798 57:-1 58:-1 59:-0.888889 60:0.737969 61:0.546242 
-1 1:-0.585366 2:-0.975139 3:-0.960819 4:-0.315556 5:0.245092 6:-0.966019 7:0.347671 8:-0.948895 9:-0.889975 10:0.452578 11:-0.267067 12:-0.869337 13:-0.662528 14:-0.835319 15:-0.0158768 16:-0.4861 17:-0.00898997 18:-0.225803 19:-0.180914 20:-0.371581 21:-0.175536 22:-0.691747 23:-0.203905 24:-0.711007 25:-0.229683 26:-0.675436 27:-0.204376 28:-0.696259 29:-0.0913168 30:-0.710861 31:-0.173821 32:-0.723458 33:-0.225623 34:-0.708503 35:-0.99361 36:-0.993958 37:-0.993691 38:-0.995434 39:-0.994178 40:-0.993856 41:-0.992453 42:-0.995794 43:-0.985203 44:-0.986577 45:-0.966038 46:-0.956044 47:-0.971831 48:-0.96401 49:-0.920424 50:-0.678788 51:-0.476038 52:-0.0592593 53:0.32 54:0.00334448 55:0.125 56:-0.414141 57:-0.464968 58:-0.490909 59:-0.222222 60:-0.661691 61:0.110694 
-1 1:-0.800276 2:-0.952728 3:-0.859806 4:-0.240579 5:0.0249322 6:-0.970788 7:0.301295 8:-0.63876 9:-0.792961 10:0.453261 11:-0.262466 12:-0.864009 13:-0.656982 14:-0.83205 15:-0.254812 16:-0.28042 17:0.454723 18:-0.0204851 19:0.76478 20:-0.124628 21:0.818685 22:0.175315 23:1 24:0.188707 25:1 26:0.136998 27:0.303828 28:0.149213 29:0.999921 30:0.2819 31:-0.492322 32:-0.0442504 33:-0.786656 34:-0.880313 35:-0.872204 36:-0.78852 37:-0.971609 38:-0.968037 39:-0.973799 40:-0.949309 41:-0.914465 42:-0.943218 43:-0.950678 44:-0.946309 45:-0.909434 46:-0.89011 47:-0.915493 48:-0.912596 49:-0.96817 50:-0.939394 51:-0.872204 52:-0.859259 53:-0.856 54:-0.852843 55:-0.9 56:-0.848485 57:-0.898089 58:-0.781818 59:-0.555556 60:0.196928 61:-0.164098 
-1 1:-0.591809 2:-0.971851 3:-0.960892 4:-0.315565 5:0.24461 6:-0.965965 7:0.348066 8:-0.950336 9:-0.891982 10:0.455464 11:-0.256756 12:-0.874967 13:-0.662492 14:-0.840776 15:-0.0318404 16:-0.575555 17:-0.0191782 18:-0.378142 19:-0.213169 20:-0.585217 21:-0.185015 22:-0.678366 23:-0.185454 24:-0.651388 25:-0.238353 26:-0.687229 27:-0.178734 28:-0.676622 29:-0.078235 30:-0.652774 31:-0.170236 32:-0.686113 33:-0.225398 34:-0.675936 35:-0.99361 36:-1 37:-0.996845 38:-0.981735 39:-0.998544 40:-0.996928 41:-0.987421 42:-0.993691 43:-0.985203 44:-0.991946 45:-0.973585 46:-0.945055 47:-0.943662 48:-0.917738 49:-0.824934 50:-0.606061 51:-0.41853 52:0.111111 53:0.28 54:-0.0769231 55:-0.316667 56:-0.484848 57:-0.605096 58:-0.345455 59:-0.555556 60:-0.696761 61:0.114806 
-0.5666272361629222 1:-0.919466 2:-0.717562 3:-0.349918 4:-0.11901 5:0.584359 6:-0.919597 7:0.512502 8:-0.684375 9:-0.964118 10:0.454945 11:-0.257922 12:-0.968419 13:-0.660556 14:-0.961101 15:-0.638635 16:-0.591675 17:-0.632823 18:-0.527866 19:-0.609678 20:-0.663038 21:-0.1376 22:-0.527383 23:-0.102459 24:-0.567717 25:-0.0601663 26:-0.553941 27:0.325595 28:-0.643849 29:0.215646 30:-0.591428 31:0.325393 32:-0.582996 33:-0.272122 34:-0.430088 35:-0.961661 36:-0.993958 37:-0.987382 38:-0.990868 39:-0.994178 40:-0.99232 41:-0.98239 42:-0.985279 43:-0.980271 44:-0.981208 45:-0.981132 46:-0.950549 47:-0.915493 48:-0.969152 49:-0.984085 50:-0.975758 51:-0.948882 52:-0.948148 53:-0.864 54:-0.939799 55:-0.875 56:-0.888889 57:-0.821656 58:-0.854545 59:-0.777778 60:0.206353 61:0.191202 
-1 1:-0.725725 2:-0.946838 3:-0.917638 4:-0.33177 5:0.268133 6:-0.957922 7:0.339463 8:-0.937262 9:-0.885842 10:0.465777 11:-0.288993 12:-0.878798 13:-0.65726 14:-0.839065 15:0.603704 16:-0.185591 17:0.845609 18:-0.0294073 19:0.468419 20:-0.303211 21:0.355455 22:-0.360898 23:0.0391798 24:-0.56431 25:0.637835 26:0.0228687 27:0.770815 28:0.193616 29:0.178597 30:-0.395342 31:0.0923793 32:-0.425688 33:-0.304823 34:-0.655798 35:-1 36:-0.993958 37:-1 38:-0.995434 39:-0.998544 40:-1 41:-0.992453 42:-0.991588 43:-0.995068 44:-0.986577 45:-0.954717 46:-0.950549 47:-0.909859 48:-0.835476 49:-0.724138 50:-0.521212 51:-0.42492 52:-0.355556 53:-0.456 54:-0.645485 55:-0.7 56:-0.777778 57:-0.732484 58:-0.781818 59:-0.888889 60:-0.768372 61:0.127557 
-1 1:-0.90474 2:-0.764743 3:-0.577794 4:-0.110155 5:0.516116 6:-0.861811 7:0.555177 8:-0.671165 9:-0.912171 10:0.661611 11:-0.284079 12:-0.949677 13:-0.658213 14:-0.924104 15:-0.138366 16:0.0241161 17:-0.159808 18:0.0242555 19:0.278097 20:-0.00783595 21:0.230231 22:0.111179 23:-0.290277 24:-0.605892 25:-0.25834 26:-0.207291 27:0.237696 28:0.17366 29:0.331656 30:0.139732 31:-0.0904479 32:-0.0946598 33:-0.499408 34:-0.207853 35:-0.948882 36:-0.915408 37:-0.946372 38:-0.958904 39:-0.978166 40:-0.980031 41:-0.977358 42:-0.974763 43:-0.98767 44:-0.986577 45:-0.966038 46:-1 47:-0.938028 48:-0.938303 49:-0.941645 50:-0.927273 51:-0.948882 52:-0.918519 53:-0.952 54:-0.979933 55:-0.966667 56:-0.929293 57:-0.910828 58:-0.927273 59:-0.777778 60:0.330297 61:-0.119317 
